-0.46972173 0.11751993 -0.4842083 0.16864985 -0.38196817 0.3540566 0.38096568 -0.4550298 -0.120495304 -0.36029777 0.39304495 0.046708137 0.061645463 0.35646924 -0.2507766 -0.4736702 -0.06472136 -0.29060054 0.08306238 -0.25921515 -0.32250917 0.12475766 0.43327165 0.4349261 0.027949339 0.3748458 -0.034575276 0.30563843 -0.27543727 0.002245017 0.43762887 0.37234443 -0.2089317 0.18695872 0.29211617 -0.19242506 0.22258474 -0.06655133 -0.4412504 0.4662236 0.49635646 0.34207416 0.46370026 0.19333577 0.12014148 -0.22368537 -0.24510993 0.486039 0.11588205 -0.079153776 0.25804526 0.23515677 -0.041714203 0.11888633 0.14210388 0.096986115 -0.042495787 -0.15489109 -0.337449 0.48955882 -0.48044443 -0.13028747 -0.084552415 0.34266904 0.012251901 0.48437327 0.2764808 -0.49093124 0.20099226 0.14291672 -0.25090492 0.18030123 0.35051394 0.014401213 0.4137507 -0.2645601 0.11025367 0.22613093 -0.4907607 0.19422881 0.2362408 -0.0057049445 0.41432825 -0.17757879 0.09910941 -0.41074497 0.205303 -0.3266848 -0.3333397 -0.36781156 -0.37490216 0.20995472 0.21150644 0.28586787 -0.30496278 -0.10810356 -0.2782079 -0.0738961 0.34111482 0.41645297 0.36977878 0.19194785 0.43695042 0.12509389 -0.20828773 -0.4641567 -0.44882232 0.27260098 0.20903891 0.0137442695 0.48034695 -0.14004178 -0.43087408 -0.04631523 0.009378245 -0.17538592 0.2348604 -0.33984345 0.001939811 -0.10600775 0.32069853 0.51678956 0.42085204 0.04285522 0.004721647 -0.075863756 -0.241688 -0.1946933 -0.0073891007 0.21206252 0.4394689 0.24087866 -0.21824883 0.32193604 0.015124165 -0.21264797 0.17353535 -0.42109606 0.1553168 0.2325055 0.037156563 0.30111423 0.33071834 0.4755036 -0.3323869 -0.3752041 -0.45974523 -0.04918354 -0.4348861 -0.30658272 0.053438175 -0.26159754 0.4277748 -0.04864205 -0.3229363 -0.4312621 -0.013079329 0.46028754 -0.24021626 0.32198152 0.2255693 -0.30440077 -0.14174505 -0.3013235 -0.380705 -0.08574024 0.47678223 -0.10586196 -0.098321036 0.28741023 0.080632776 0.17379245 -0.041676473 0.22165179 0.15184927 -0.011494043 -0.2081351 0.110371776 0.36850318 0.2831691 -0.17614228 0.08059009 0.5033249 0.4317691 -0.31220296 -0.45655215 0.4557035 0.5040673 0.2422997 0.34532657 -0.18482132 -0.123262905 0.102595866 0.34712306 -0.4205186 0.16246971 0.49166504 0.24008442 -0.16566697 0.20267539 -0.11859053 0.24559698 -0.41520452 0.289668 -0.4269016 0.1632849 -0.12894548 -0.34430248 -0.4618015 -0.43196863 -0.021413326 -0.19449748 0.32355276 -0.41261855 0.07419042 -0.18311861 -0.0410225 0.4083905 0.42915657 0.37671578 -0.4948585 -0.44985795 -0.3449109 0.31894672 0.18937837 0.47561702 0.29451984 -0.31362578 -0.19142263 0.06623095 0.3578242 0.23305771 0.048423488 -0.405324 0.3336033 0.1508924 -0.46824995 0.46374744 0.10310112 -0.16289376 -0.15190852 0.20787817 0.2750939 -0.15732189 -0.100231186 0.5179539 -0.33783862 0.18807289 0.06655723 0.021630244 -0.15809037 -0.449966 0.2716108 0.121856354 -0.071722664 -0.075505264 0.079482295 -0.036270123 0.151962 0.11034802 0.474665 -0.2861207 0.27404836 0.43245146 0.31013972 -0.47307438 -0.22232535 -0.24272716 0.51504546 0.20120619 0.0710005 -0.1732957 0.046302672 0.24128763 -0.23449683 0.32456186 -0.18955696 0.45535523 0.2404468 0.15177189 0.20869619 0.46454906 0.2632869 0.23507845 -0.24790296 0.3183617 -0.2412643 0.079185516 0.3838084 0.30384874 0.13675675 -0.39698458 -0.073494606 0.33165914 -0.34161025 0.5041735 -0.3436423 0.05123961 -0.24853203 -0.36719918 0.24083813 -0.20889738 0.26271364 -0.4285267 0.19561496 -0.059691828 0.4684713 0.26039076 0.4474536 0.37360966 -0.055781376 -0.44695696 -0.2507882 0.41241047 -0.24596708 -0.35098723 0.06465606 -0.53838 -0.31097808 0.17184736 -0.14185181 -0.30336037 -0.48265803 0.32574958 0.41905612 -0.28937614 -0.26909715 -0.16591029 0.051663715 0.24281125 -0.2455191 0.39949918 -0.43199116 0.47063765 0.22143263 0.305288 0.3336204 0.013513271 0.11101284 -0.36955166 -0.0648707 0.3541714 -0.123618506 0.12855257 -0.35504723 -0.08778736 -0.51488566 0.26612794 -0.5264182 -0.11679035 -0.31682077 0.51958907 -0.22171545 -0.28058055 -0.30292672 0.099982694 -0.24574363 -4.5083475E-4 -0.2881044 -0.29949096 0.10996391 -0.18942362 0.19010645 -0.09140492 -0.19774924 -0.23700134 -0.043811183 -0.1258438 -0.43613103 -0.5105706 -0.22943799 -0.39367872 -0.1471013 0.32620332 0.3436278 0.04936229 -0.31561238 0.115340896 0.29203436 0.10911863 -0.21621521 0.34248573 -0.5441174 0.28924787 -0.39302447 -0.08282534 -0.061381463 0.26110944 0.40639555 0.45662707 0.4373602 0.08082797 -0.21610193 0.10057123 0.47200528 -0.36687484 -0.24949034 -0.22166763 0.47133592 0.32435125 -0.22719263 0.22991772 -0.37094107 0.30139711 -0.561378 -0.3626266 0.086917385 -0.3104782 0.026407182 0.3362124 0.3918879 -0.16851728 0.27380612 -0.1110404 0.2544984 0.019926034 0.41310668 0.12876609 -0.08624599 0.2724795 -0.06668931 0.13086408 0.38143334 0.12005604 0.18909802 -0.4498685 0.17828241 0.2936622 0.1269482 0.2877084 -0.064369015 -0.101200335 -0.15983917 0.29446903 -0.18435057 -0.042704716 0.17158303 -0.3137856 0.35966268 -0.060156524 -0.4952176 0.43171698 0.24065392 -0.19873607 -0.20090947 0.14510237 0.22631785 0.16070816 0.29402122 0.43682557 0.08260685 0.10992898 0.23535837 0.2539878 0.26011574 -0.29682612 -0.30061302 0.33603254 -0.3564224 0.15857151 -0.10022862 0.025024826 0.19355436 -0.42333978 0.33665696 -0.48828065 0.17777157 -0.1392989 -0.33280787 -0.328824 -0.43027163 0.4610107 0.01664989 -0.04421567 0.016192637 -0.06422363 -0.14037351 0.051522158 0.110551916 0.13242899 -0.25097474 0.1613416 0.47263542 -0.16594298 0.46475717 -0.44243836 0.09931126 0.12931791 -0.412625 -0.18743356 0.35442218 0.10166785 0.18346894 0.12339549 0.2667665 -0.36120468 -0.26991275 -0.054611683 0.23423742 0.21816927 0.30206656 0.1735393 0.4671744 0.37275237 -0.31438455 -0.45727283 0.1448588 0.010166836 -0.31188807 0.20494345 0.26964295 0.07108756 -0.39719054 -0.035006672 0.3856092 -0.22672345 0.072474025 -0.09334152 -0.44805655 -0.30421245 -0.13665225 0.485789 -0.2132879 0.37594667 0.38108587 0.31576493 -0.437283 0.38300824 -0.15606524 -0.4552315 0.36818492 0.043627493 0.2414978 0.49750257 -0.045036077 0.3649764 0.3674738 -0.2714337 -0.10401706 -0.14847358 0.39417747 -0.089860946 0.07136271 0.4719497 0.32406977 -0.4493907 0.3655354 0.23181628 0.29189712 -0.35828358 -0.08101301 -0.4370789 -0.3785403 0.25553325 0.24863286 -0.28188485 -0.035679568 -0.4111918 0.006625212 -0.2767122 0.07290398 0.0816293 -0.12555711 0.03294372 -0.38515005 0.32837686 0.4875048 0.57184315 0.2067224 -0.01600172 0.31512257 0.2239025 0.26464918 -0.46107236 0.24407679 -0.0036739171 0.40096185 -0.32091603 -0.100463256 0.07388555 0.056058716 0.013626995 -0.1534173 0.3543893 -0.14144018 -0.11782632 -0.23909566 0.3122873 -0.43302992 -0.16972359 0.46403137 0.26487452 -0.37671706 -0.27014717 0.09563523 0.026772397 0.3578724 -0.30198193 0.53569126 0.505671 -0.35945636 -0.46740392 0.05854441 0.06611118 -0.439204 -0.026002701 -0.28228828 -0.21862575 0.37956426 0.35716444 0.39692003 0.22688346 -0.3782376 0.46306008 -0.19253397 0.47761282 -0.31835616 0.40139866 -0.09846398 0.14580022 0.3901749 0.2719125 0.5327253 0.11554417 0.50497264 -0.053455833 0.4988311 0.13918827 0.02245922 0.34943885 -0.014242711 0.13200015 0.032752205 0.49197373 0.24692354 0.087170474 0.10422502 -0.1759704 -0.45071763 0.021978924 -0.13621688 0.2958819 -0.3578561 -0.32379225 -0.089148365 -0.30763713 0.38848677 -0.24997638 -0.2062316 0.47916964 0.24776761 0.18984851 0.3004192 0.27657261 0.29486236 0.4612793 0.42503914 -0.32417133 -0.27196407 -0.4917631 0.13946776 0.28686404 -0.3119103 0.1895186 -0.4550004 0.055137664 -0.4124354 -0.109842576 -0.022322008 0.3577186 0.32257062 0.28414065 -0.4878946 0.48303533 0.43968213 0.29331237 0.1515123 0.028878989 0.42945915 -0.059073832 -0.31770173 0.041669402 -0.18747848 -0.5138665 0.004551014 -0.50268346 -0.0733434 -0.45560488 0.1740695 -0.4408792 0.45084682 0.44577086 0.4209101 0.24026121 0.1493949 0.18528226 0.36852956 -0.4090317 0.34217182 0.20975837 0.121895894 -0.37517327 0.3486553 -0.17363682 0.07804407 -0.4383908 0.41735262 -0.25163266 0.14836259 -0.12454115 0.10398606 0.34471613 0.040994864 0.35107967 0.11851759 0.06576161 -0.042790636 0.41153777 -0.12445282 0.09976346 -0.035831776 0.4684473 0.004206319 0.15193851 0.47132087 -0.20003371 -0.07804797 -0.38473478 0.32669738 -0.2543575 0.39793038 -0.039298244 -0.26189455 -0.22556825 0.027123237 -0.21320884 -0.31209233 0.119584456 -0.27629617 0.42855015 -0.25845313 -0.45424125 0.37528414 -0.3538848 0.30161682 0.01441121 -0.09072602 0.11961831 0.4767382 0.39021322 -0.46875533 -0.3924232 0.28151652 0.41155705 0.2049192 0.21215172 -0.45667556 0.48442748 0.49123916 -0.43718848 0.37730396 0.448807 0.053484105 -0.3884816 -0.42098635 0.15401083 0.12266935 0.42788532 0.36302993 0.27676025 -0.018711688 -0.38076875 0.49145618 0.21038716 -0.43249205 -0.024964463 -0.4906275 0.48748687 -0.29580507 0.46461657 0.30935007 0.031070007 0.3970484 0.03046713 
0.40678668 -0.15449646 0.47717318 -0.0120370025 0.46269816 -0.44998506 0.33924624 -0.02109363 -0.1043749 -0.07165258 -0.18715149 -0.4073817 -0.22429802 0.37879986 -0.28240123 -0.13676879 -0.3944037 -0.3917019 -0.021216486 -0.35036594 0.2285463 0.34819102 0.30701017 0.4728378 -0.21184333 0.2895603 -0.40975043 -0.3775473 -0.01541641 0.18241695 0.013898945 0.3745457 0.07373808 -0.43497998 0.07476918 -0.23866227 0.41140202 -0.48464578 0.4669566 -0.15968063 -0.14134957 0.15173084 0.27928168 -0.18547945 0.031282645 0.3450692 0.07691068 -0.3110129 0.19983275 0.25207287 0.19120899 0.3402705 -0.36083892 -0.16131859 0.025498575 0.058916938 0.34761474 -0.49586904 0.21467522 -0.4043681 0.36099014 0.29567507 0.27227253 -0.26186767 0.33413416 -0.033555955 -0.2619646 0.26721904 -0.33048773 0.30854872 -0.102526575 -0.10469569 0.23750639 -0.20339519 -0.07861509 -0.49307087 -0.3561241 0.4671778 0.4270488 0.3882348 0.054917153 -0.438563 -0.07310528 0.014711409 -0.065594144 0.027164623 -0.21653785 -0.16563015 0.23191619 0.32319447 0.033365577 0.16800801 0.2993973 -0.44210166 0.25791708 0.35497627 0.40473226 -0.020516789 0.34675723 0.40537393 -0.37457708 0.39767092 -0.47856936 -0.4302073 -0.12282799 -0.42986843 0.22261858 -0.45877305 -0.12110321 0.43285888 0.47904152 0.10236889 -0.31813088 0.18161024 0.034018643 0.15487002 0.08414613 0.42272785 -0.39821446 -0.08432938 -0.4412553 0.16158955 -0.27562833 0.049911153 -0.2108709 0.1292525 0.028730283 0.10773022 0.051263988 -0.45684722 -0.14220236 -0.00608814 0.39724398 0.055394247 -0.17614196 0.195425 -0.41041014 -0.25999576 -0.12873092 0.037590522 7.050244E-6 -0.24052848 0.26601407 0.35832205 -0.029561618 2.181904E-4 -0.017904732 0.2260671 -0.19360802 -0.03715138 0.22010265 0.074706525 0.1682977 0.4152928 0.1998639 0.03082126 -0.13258466 -0.06634736 -0.41283074 -0.3332095 0.025307188 0.33555722 0.18545246 0.24542332 -0.24923119 -0.035912108 -0.041678093 -0.18415241 0.47804356 0.31646165 -0.3651221 0.25387815 -0.02004808 -0.35826012 -0.05398873 0.13157004 0.3246828 -0.32969457 -0.41444534 -0.099351995 0.10702321 0.1518976 -0.31545305 0.103476696 -0.40845796 0.3374238 0.03796619 0.20175184 -0.4918388 -0.38447234 0.017918756 0.21987854 0.07442284 0.21838535 -0.26320982 -0.4201451 0.062308125 -0.20401552 -0.17272785 0.09904705 0.48305622 0.5147515 0.5348998 -0.22083184 0.51474464 0.09050349 -0.1439089 0.12082896 -0.038253825 0.23043244 -0.25463852 0.32418633 -0.07593128 0.4128129 0.087312154 0.21259086 -0.0069400887 9.963526E-4 -0.36506248 -0.41280532 0.21240012 0.07719572 0.39530054 0.076410785 0.33386722 0.05189848 -0.30519673 -0.2560839 -0.048674177 0.5047402 -0.24602664 -0.2967548 0.25443086 0.4378201 0.13141407 -0.28800914 -0.025877692 -0.019246558 0.51578486 0.15331972 -0.43096894 0.32937193 0.050858967 0.1733537 0.40016603 0.05321354 0.22889696 -0.30602306 0.27979824 -0.25306118 0.44991624 -0.17798789 0.49560374 0.49646753 0.4316377 0.15638518 0.17583156 -0.102417156 0.18558475 0.22431019 -0.16576523 0.38772693 -0.07945414 0.39339373 -0.112441845 -0.18850929 0.13745877 -0.3998262 0.3213016 0.2324508 -0.19750991 0.3100616 0.21325289 0.35090616 -0.05481457 0.45500973 0.0127722 -0.40612623 -0.09955554 -0.33003438 -0.24738543 -0.49688056 -0.077275775 0.48434317 -0.016132046 0.277071 -0.03491408 0.3425181 0.37855783 0.4874402 -0.031367876 0.54208374 -0.30462256 -0.31366822 -0.3947641 0.297557 -0.27655512 -0.43821672 0.50081116 0.059853785 0.36095965 0.07391628 0.14236332 -0.22567558 0.4288298 -0.23833156 0.22801632 0.3728802 -0.059139106 0.41967055 0.4796403 -0.39822942 -0.17087196 -0.15378837 -0.25565895 0.17461322 0.29562694 0.11077542 0.053239856 0.0568962 0.016835626 -0.42299798 0.0017068238 0.3201669 0.37242368 0.44515687 0.43411925 -0.31264922 -0.339631 0.02228221 0.42229086 0.1672568 0.016601184 0.3974674 -0.2888138 0.0030795955 -0.48067874 0.14379106 0.43774182 0.25647318 0.06260792 -0.038673814 0.2814905 0.35311708 -0.14140339 -0.1188971 -0.43893963 0.4181868 -0.09454607 -0.119658805 -0.27098778 0.13657184 0.25235462 0.32105488 0.37655196 -0.18040335 0.26210752 -0.4755078 -0.49053743 -0.23131293 -0.2892449 0.49938425 -0.38972765 -0.3227956 0.39845246 0.13006686 -0.12994672 0.46588576 0.21028543 -0.03159455 -0.30400568 -0.06973413 -0.19462964 0.3394761 -0.20350404 0.34828064 -0.13695575 -0.2805755 0.06303359 -0.4082205 -0.25786072 -0.16536982 -0.37189332 -0.3075911 -0.021581022 -0.33359474 -0.059864547 -0.21051724 0.08351853 -0.32515508 -0.4511775 -0.015692908 -0.47140494 0.4743121 0.082642734 -0.36892858 0.2253579 -0.34416777 -0.5423349 0.25338432 -0.5579829 -0.1000308 -0.60373145 0.07806071 -0.19300513 -0.4478231 0.1633732 -0.45474586 -0.046614695 0.16213423 -0.39264366 0.29533982 0.2384522 4.3932465E-4 0.35280785 0.0058907885 -0.30477908 0.4476112 -0.22155197 -0.19866669 -0.28567305 0.33192295 -0.44547623 0.03024656 0.31498843 -0.45944005 -0.12061124 0.24951795 -0.47169557 -0.21897714 -0.090855114 -0.40921804 -0.09460704 -0.39611742 -0.12953553 0.010205856 -0.052850965 0.3444883 -0.48113918 0.42945474 -0.048402358 -0.3425708 -0.5235294 -0.45522252 -0.043546204 -0.31866935 -0.092863545 -0.19750102 -0.23981713 0.3866484 -0.4155736 -0.092343695 -0.2234974 0.20598276 0.12789191 0.11675186 -0.4985962 0.011822185 -0.4930772 0.4562812 0.017296221 0.029570065 -0.0056689573 0.41267538 -0.25576642 -0.12648346 -0.04762429 -0.01590795 -0.06251087 0.18606776 -0.29779556 0.30272663 0.46595892 -0.3308804 0.24376273 -0.04724957 -0.21683076 0.38464317 0.073082805 0.24020037 0.16258842 -0.47588125 -0.42614108 0.12099856 0.2053627 -0.5210666 0.16905394 0.48249036 -0.13353111 -0.32718995 -0.07091395 -0.4073245 0.52560705 0.3520872 0.05571325 0.1790756 0.23033966 -0.13810737 -0.37915817 -0.297112 0.44799277 0.12670721 -9.157121E-4 -0.41369992 0.35357276 -0.098723605 -0.3324435 0.4911144 0.0874212 0.19427718 -0.23084249 0.3544161 -0.18443264 -0.066305585 0.47708592 -0.041918945 0.07407217 -0.049943488 0.15678772 0.21894619 -0.17209376 0.20104206 0.20500706 0.25664756 -0.15923437 0.3046846 -0.030257344 0.33523563 -0.34619132 -0.0730485 0.31588116 0.33456498 0.04405078 0.4880907 -0.15009545 0.21542503 0.013430162 0.41826192 0.35273063 -0.19394009 -0.32684088 -0.009527303 0.40389827 -0.31670362 0.11947481 0.3275869 0.05426589 0.33778036 -0.08413018 0.3598816 0.24628112 0.39328954 -0.49843612 0.2003928 0.09257788 0.035545476 -0.021166522 -0.15038936 0.4096909 0.17183354 -0.019722633 0.18853064 -0.4675485 0.3293958 -0.4331703 -0.31544015 -0.26011416 -0.13047005 0.07647753 0.37232992 0.42309102 -0.04286795 0.18101275 -0.38092342 -0.35440347 0.30835736 0.33857343 0.27402493 -0.16236702 0.14549208 -0.26332295 0.029055486 0.25439987 0.45390484 -0.020154255 -0.14294554 -0.003067692 0.19727184 0.09177392 0.08343013 0.2661899 0.05847502 0.21636146 -0.09817577 -0.16137579 -0.40388158 -0.43697056 -0.53984725 0.14184123 -0.17723203 -0.2151132 -0.02351653 -0.2371668 -0.37903827 0.39395705 -0.21199942 -0.27970996 -0.37857088 0.38577414 0.15724678 -0.011654336 -0.066165015 -0.48004186 -0.42652276 -0.3021131 0.4619189 -0.03688867 0.046893246 0.33687833 0.22423549 0.45257604 -0.09403919 -0.24990481 -0.4421563 -0.38344982 0.22364292 0.12961203 0.45157695 -0.3703072 -0.343349 0.3681665 0.3113384 -0.0742224 -0.35040557 0.48926356 -0.17786527 -0.32750228 0.3278893 0.08234534 -0.35290632 -0.08274354 -0.45144653 0.17355819 0.1876646 0.47852582 0.2622167 -0.23771389 0.44970348 0.07364281 0.16209942 -0.2917162 -0.06677628 -0.42008376 -0.54320395 0.010028045 0.47097135 -0.08450425 -0.208475 0.08325767 0.17253894 -0.07027262 -0.44641373 -0.13070028 0.06433186 0.11546905 -0.048093725 -0.105886064 0.42984146 0.19523714 -0.2698879 0.46251294 0.1040637 -0.15876913 0.25102943 -0.45477074 0.14539282 -0.26195544 0.0842618 -0.2911933 -0.255969 0.014833213 0.3006884 -0.0705048 -0.390105 0.2441468 0.25626406 -0.005171311 0.49021813 0.51927394 0.16832958 0.23628049 0.3389065 -0.42932594 -0.14676797 0.20734002 -0.46219862 0.36876068 0.19400379 0.24363452 0.35189822 0.029997589 0.22199601 0.4759065 -0.21725486 -0.42631024 -0.11542718 -0.36821052 0.4652086 0.50351024 -0.37267047 0.24255751 0.071887374 0.21090199 -0.2399556 0.07691436 -0.22128503 -0.30123514 0.38883793 -0.08963056 -0.2268624 0.13286623 0.18563771 0.17019358 -0.25277308 0.10500658 -0.3280268 -0.3688931 0.47100812 0.33078998 0.44162098 0.29954138 -0.07558986 0.38528305 0.22391126 0.18419965 -0.47865808 0.123316914 0.354355 -0.016543062 0.30456766 0.39817062 0.022134895 -0.12124143 -0.36093655 0.374602 0.4323931 -0.2293935 -0.046030793 -0.11662449 0.1901505 -0.43145636 -0.29887605 -0.37961295 -0.2426603 -0.42537624 0.40022385 0.25018764 0.06817513 0.19206731 -0.19700293 -0.22369924 -0.06859969 0.42218295 0.018596953 0.48231953 0.34004694 -0.0031546487 0.32664183 0.27617618 0.42123008 -0.074435525 -0.36057734 0.17021967 0.29106244 -0.23944212 -0.18609972 -0.08685802 0.20096081 0.14987889 0.2621173 0.27545175 -0.16417393 -0.007327155 0.17241651 
0.47303805 0.19945258 -0.10107424 0.48006943 0.1573373 0.15130982 -0.24716884 0.22830996 -0.4181771 -0.19745038 0.29211277 -0.35015798 -0.41043004 -0.11670782 -0.10638394 0.20033288 -0.30629855 -0.1927447 -0.015073761 -0.35126683 -0.05336296 -0.30012357 -0.18095168 0.037105605 -0.1797453 0.42404106 0.08623497 -0.36089236 -0.49952415 -0.39170814 -0.02531334 0.1638636 0.14327906 0.45628595 -0.48430306 0.43387595 0.19240488 -0.44645992 0.17785844 -0.09934717 -0.18620881 -0.025495239 -0.28938603 -0.3399385 -0.1278293 -0.2519968 0.18802361 0.0841261 -0.35625046 0.13501365 0.03322694 -0.23661493 -0.37729362 0.22846103 -0.4214993 0.26811054 0.3873817 0.11689472 0.3706619 0.10632971 0.46088225 0.2096786 -0.0067374976 0.36010388 -0.49563134 0.35889775 -0.34178516 -0.29821673 -0.021725208 0.08389598 0.18454911 -0.12687117 -0.3929506 -0.4367575 0.3008687 0.30481538 -0.32563475 0.09608762 0.39412272 0.16016163 0.011100704 0.20759356 -0.19263808 -0.002389555 0.17876394 0.17355655 0.05918384 0.32504654 0.07534971 0.45164 -0.018544367 0.3454153 0.41843763 0.25639072 -0.22785985 -0.37033847 0.23473419 -0.2725307 -0.43054974 -0.16669723 0.4973187 0.13620834 -0.039366312 -0.4917872 -0.19532317 0.294982 0.17486387 0.23706976 0.04687016 -0.04717808 0.0861908 -0.05297759 0.43277448 -0.06029576 -0.009348768 0.039120473 -0.024364851 0.37071943 -0.2624389 0.1680554 0.07252877 9.7427325E-4 0.37838775 0.06355616 0.124067076 0.4071551 0.26816925 0.17809425 0.082307264 -0.47571054 0.22436763 -0.39281714 -0.13774745 0.22472772 -0.056764293 0.16458829 -0.30464157 0.25425714 -0.21815881 0.043557845 -0.18917198 0.02009863 -0.35486302 -0.26453793 0.31192833 -0.07054934 0.51110584 -0.30451956 0.4278996 -0.3335447 0.35352683 0.2946405 -0.27467614 0.48072076 0.32704645 0.45512906 -0.046047073 0.14666116 -0.108511455 -0.42921278 -0.32991186 -0.16629755 -0.2976165 -0.38856727 0.44446543 -0.47241053 0.10783291 0.07556536 -0.20612963 0.38059527 0.42657483 -0.411702 0.035130996 0.09843798 -0.054041922 0.35357088 -0.042483773 -0.22820482 0.32108054 -0.05159736 -0.32632264 -0.006544946 -0.2985566 0.11873651 -0.13246825 -0.12576254 0.2791632 -0.3275381 -0.3906335 0.28026775 -0.03247458 -0.11501156 -0.15671569 0.43339315 0.40701857 -0.086440295 0.2551123 -0.25400105 -0.3964542 -0.44622648 -0.08040824 0.23682272 0.041654486 -0.41058183 -0.2830832 -0.31250817 0.16507675 0.010382245 -0.1644128 -0.46335462 0.44624916 0.40999323 -0.3029398 -0.0026341514 0.16389419 0.16204236 -0.1325374 0.10874018 -0.27167273 -0.42255223 -0.20290412 -0.335755 0.01556892 0.44486564 -0.04744753 0.23651114 -0.08697563 0.14398462 -0.37038648 0.2204093 -0.38661668 0.38763943 0.43852413 -0.08134142 0.081257716 0.38463482 -0.2062857 0.018985443 0.19956975 -0.12780064 0.47898766 -0.17269045 -0.49422902 0.06152343 -0.3335261 -0.13330041 0.13096881 -0.15199907 0.23969747 0.29257795 -0.34273535 0.37412816 0.1813657 0.060841694 -0.3020507 -0.37133366 -0.015030954 -0.34422803 -0.12292416 -0.27141657 0.042701557 0.16437885 0.36656004 -0.4244188 0.049486186 -0.36001766 0.20738274 0.34449774 0.45016727 0.1578367 -0.19193676 0.09669516 -0.045755558 -0.43570927 0.075033605 0.0644811 0.4281152 0.06493828 -0.48584473 -0.25564152 -0.15322164 -0.26357868 -0.45515764 0.27450624 0.12165296 -0.14415385 -0.15429059 -0.008304041 0.011170173 0.19881465 0.19123201 -0.47673473 -0.38757205 -0.25833216 -0.049904913 0.35347098 0.32456896 -0.2754989 0.08067355 -0.47090697 0.19836833 0.27980596 0.4593082 0.057604104 0.49016893 -0.39746118 -0.37561533 -0.18124706 0.0822107 -0.4435544 -0.16415834 0.1957466 0.42001703 0.13363527 -0.48217285 -0.53141814 -0.27272022 0.0321515 -0.25224596 -0.21140195 0.3379589 -0.065484904 -0.23293793 0.48228753 -0.11827408 -0.008124681 -0.044517487 -0.13164093 -0.26029795 -0.27858755 -0.2076142 0.06507774 0.22131816 -0.34630606 0.18776624 -0.13200116 0.24560021 -0.13800466 0.41292468 0.42004496 0.23547961 0.45276573 -0.45496583 0.15043986 0.20657471 -0.094392166 -0.2117381 -0.46845406 -0.42833883 -0.1822331 -0.20729984 0.23278885 -0.36227146 -0.43786174 0.39460567 0.48537332 -0.02994177 -0.15166219 0.3866292 0.3355192 0.36659938 0.39895213 -0.45328084 0.36864161 -0.32147706 0.11309822 -0.31937596 -0.08710645 0.41695088 -0.41215572 0.06884184 0.36251098 0.21730551 -0.31828105 -0.47705024 0.37436 0.17454425 -0.03031655 0.14347537 0.3580746 0.38079542 0.33008853 -0.14657943 -0.32580903 0.15623109 0.15228632 -0.229551 0.08679935 0.3690898 0.041328773 0.17773812 0.20940882 0.008175383 -0.21893007 -0.05450812 -0.4647039 0.39304775 -0.3837719 -0.13631903 0.26394162 -0.08854329 0.23913886 0.120046906 -0.4383353 -0.20240617 -0.018868037 -0.40338773 0.2279009 0.41879004 0.08810948 -0.15439098 0.4780894 0.023813102 -0.4425185 -0.010394174 -0.37520918 -0.40128508 -0.014355254 -0.03721617 -0.33838284 0.011664124 -0.29424387 -0.38211682 0.24087246 0.24671209 -0.119693734 -0.40868828 -0.40847316 0.13118234 -0.48686197 -0.42818007 -0.43037814 -0.3517435 -0.17181724 -0.41722685 -0.045511693 0.27979833 -0.22762762 -0.34555066 -0.11713538 -0.28906465 -0.091027476 0.02798537 -0.379596 -0.3032882 0.44930243 0.25002328 0.14352351 0.1449394 -0.221824 0.04991324 0.2343956 -0.29407415 0.34610245 0.07696608 -0.2941941 0.451461 0.4046209 -0.09619875 0.2116876 0.42840412 0.14358738 0.14604022 -0.5356031 0.30539963 0.20373355 0.26589558 -0.28848076 -0.32270858 0.4206941 0.011701611 -0.39460215 0.17877868 0.48320097 -0.19623917 0.14416736 -0.23446272 -0.3817533 0.29535303 0.31918174 0.30544415 -0.13074486 -0.109233275 -0.40579024 -0.15820213 -0.044237584 -0.09406814 -0.11959222 0.10405753 -0.4137186 -0.29075548 -0.019307187 0.089581504 -0.3227796 0.10431849 -0.14799117 0.13158122 -0.42952484 0.08401249 0.10906576 -0.18420355 0.12766626 -0.29144934 0.1508349 -0.15122044 0.31957585 -0.074636705 0.2749959 0.12812436 -0.17878135 0.31897575 0.29301468 0.27905637 -0.26865503 0.15037253 -0.4192001 0.21918789 0.060837615 0.07308018 0.25222284 0.09900258 -0.3191987 0.32966104 -0.36324686 0.39238933 -0.3657532 0.101907894 0.24641706 0.5148078 -0.19992444 -0.44124293 -0.056100372 -0.38862762 0.33145443 0.22595926 -0.18463193 -0.40281036 0.23317114 -0.18815154 0.0020141914 0.16883838 -0.20459744 0.13117272 0.36557192 0.32164556 0.27832097 -0.015282691 0.24252042 0.18958136 -0.09587185 0.5096311 0.47580406 0.15751797 0.27183786 0.08662548 0.028066237 0.4573684 -0.09952995 -0.10127895 0.2712334 -0.08578793 0.13952787 -0.3624217 0.44676825 -0.38763344 -0.08557914 -0.39475724 0.15286219 -0.34855774 0.45368597 -0.31758857 -0.0011203204 -0.29963145 -0.06797156 -0.010768098 0.11802205 -0.3020386 -0.3991591 0.51439774 0.38141403 0.18281825 0.5284616 0.42712697 0.28421804 0.22689916 0.19579703 -0.13529368 -0.35060805 -0.38174188 -0.40860623 0.17888768 0.45102888 0.059245758 -0.23645732 -0.16952959 -0.26685026 0.012353699 -0.399939 -0.3760846 -0.29904887 0.1304982 -0.26605722 -0.41467682 -0.33757716 -0.40512586 0.34310445 0.0063248193 0.4387803 0.34824198 0.074139066 0.2584112 -0.3332351 0.24226525 -0.38554823 0.279206 -0.14947085 0.21247336 0.48586872 -0.18070167 0.20604211 0.2668822 -0.076096445 -0.31523398 0.3511671 0.4417781 0.46520224 0.4713641 0.4084039 -0.11810559 -0.48530036 0.06713551 -0.019819498 0.28796512 -0.36869478 -0.2768673 -0.13275008 -0.02439669 0.43772337 0.034503616 0.051878285 -0.43829834 -0.15059325 0.11919612 -0.43029466 0.022380587 0.42816344 0.3366517 0.11717399 0.3778004 -0.4579755 -0.43426085 -0.42363313 -0.06343985 0.31259835 -0.37773198 0.09909784 0.24665715 -0.21714859 0.30274248 -0.46292084 -0.061554424 -0.3026238 0.019536149 0.0781703 0.43692932 -0.28751102 -0.27883044 0.48494518 0.44253635 0.44423863 0.28943664 -0.23271273 0.14065021 -0.09173003 0.09679184 -0.40058666 -0.16768284 0.42853293 0.07674628 -0.32467082 0.12716438 -0.3149276 -0.23723142 0.22397709 -0.12545079 -0.08440803 -0.49974462 0.32765123 -0.30646488 0.49255815 -0.50026464 -0.15585561 0.064942695 -0.3146934 0.18335108 -0.23960882 0.36741024 -0.040146973 -0.03308244 0.2928205 -0.102069125 0.12489144 0.45933348 -0.17032297 0.26157537 0.17565024 -0.21980089 0.08148047 0.08011592 0.19118473 -0.13363943 0.052835964 0.18726923 0.031213367 0.03607346 -0.023565454 -0.13852273 0.22381088 -0.15137652 -0.14885671 -0.028302558 -0.22977957 0.3042349 -0.20490533 0.3397169 0.30064318 0.48857927 -0.4036055 0.21263534 0.2292501 0.1048965 0.33367893 0.009536533 0.0991324 0.22009146 -0.49799457 0.45962736 -0.27337584 0.118675485 0.26363108 0.011398116 -0.41632044 -0.10294555 0.18039209 -0.15852351 0.309128 -0.31958613 0.45119894 -0.14863332 -0.13162714 0.41690788 0.040396158 0.19188917 0.373922 -0.2197233 -0.37290773 -0.4773434 0.41023767 -0.47679818 -0.07733303 0.26855105 -0.24384414 -0.45241123 0.2754818 -0.23586588 0.41189697 0.09279132 -0.009939183 -0.07101373 0.2617174 0.3978821 -0.4448563 0.48344126 -0.07641437 0.059277195 -0.15285523 0.41209957 0.19409674 0.13926779 0.4522008 0.48629144 -0.05110988 -0.2879142 0.4059221 
-0.41679955 0.18801467 0.040542122 0.4245468 -0.20253289 0.21585084 0.12381566 0.19661343 0.07915728 0.41027388 0.15228297 0.31947792 0.30592108 0.44655374 0.4813493 -0.08525841 -0.3087228 0.29698673 -0.04176548 0.17134763 -0.2748854 -0.4881707 -0.1388465 0.2169659 -0.14779614 0.48335746 0.24207164 0.48102096 0.37922838 -0.42544654 0.22052793 -0.3208456 -0.49603128 -0.15783781 0.38251886 -0.27424356 0.42044547 -0.16063805 0.2012806 0.46392405 0.16595714 -0.3586939 0.3148713 0.09175293 0.2593684 -0.18670231 -0.43044725 -0.44296387 0.18903701 -0.49862918 -0.016012233 0.008284978 -0.48750803 0.21320769 0.13652214 -0.43933877 -0.3398633 0.14858283 0.08093084 0.30446792 -0.46522242 0.11683026 -0.45564997 0.45646662 -0.3461704 0.1913929 0.04665881 0.006481953 -0.115892775 0.24162307 -0.42406195 0.029438231 -0.20517063 0.4126798 -0.35891432 0.097164884 0.27544466 0.4301759 -0.15359496 -0.15643993 0.32965687 0.31891096 -0.4139955 -0.20205843 -0.09359965 -0.22618397 0.11494514 0.039893266 0.20574157 -0.04872624 0.07745015 0.16603082 0.17764229 -0.10568841 0.46162686 0.21927132 -0.22598642 0.14157839 0.12039749 0.025996517 0.16794804 0.32794002 0.13213934 0.26689115 0.17600821 -0.25047994 -0.013984557 -0.46594995 0.40683702 0.022135666 -0.23702504 -0.13653158 -0.45887947 -0.35461587 0.4484042 0.12600508 -0.02396678 -0.432409 0.4503881 0.1126392 -0.4471789 0.35714492 0.27392003 0.23014869 -0.38262597 0.3440448 -0.39810553 0.36931452 -0.07845224 -0.367426 0.25148833 0.21057926 -0.44245854 -0.23893923 0.509274 0.15690623 -0.16293278 0.42175677 -0.096152626 -0.35392386 -0.43732625 -0.13798775 -0.24774273 0.30484337 -0.2030796 0.16604245 -0.49109334 -0.48006126 -0.15121521 0.0999263 -0.048969164 -0.08127273 -0.24331562 0.019384235 0.004712305 0.09235059 0.097296305 0.3421972 -0.27425683 0.0014798389 -0.3345695 0.42953736 -0.1447959 -0.45856622 -0.03212914 0.008318823 -0.3126992 -0.2735691 -0.23798631 0.09817626 -0.39771953 -0.2084875 -0.47548056 0.05152065 -0.40973875 0.21004103 -0.4242935 -0.17294876 -0.2511504 -0.14312506 -0.46182856 -0.42057058 -0.3058568 0.2573537 -0.49667174 0.36478618 0.3055212 0.39272204 0.4644424 0.33779636 0.045831747 -0.3602822 -0.047729664 0.30063516 0.4310722 0.4197205 0.297667 -0.4700796 -0.21970902 -0.25484174 -0.23642282 -0.2926709 0.14032699 -0.19957814 0.26341176 0.09037727 0.008586353 -0.067154065 -0.037820138 0.40823427 0.07941706 -0.09654124 -0.0075949566 -0.21626282 -0.46199575 0.061807837 0.36513674 -0.023940437 0.14028081 0.09541454 0.24776784 0.36713114 0.06165676 0.33685377 0.4922822 0.20412336 0.30390844 0.12698466 0.25171414 0.25405163 0.053983383 -0.36610356 0.12432575 0.102080114 -0.12251664 -0.5092499 0.33659372 -0.46306288 -0.4927357 0.4404911 0.2805334 -0.22485805 -0.055901688 -0.45653892 -0.35431612 0.2104617 -0.27926585 -0.18840525 -0.11702408 -0.43711376 0.07773299 0.21777344 0.39919174 0.42045653 0.35605395 0.04350151 0.23136416 -0.027240444 0.42884964 0.21179487 0.26321265 0.3238635 0.22945157 -0.41301188 0.36657524 -0.12295731 0.25168443 -0.26499107 0.034922365 0.406338 -0.31585407 -0.14106046 -0.39599285 -0.3468079 0.33075973 0.45718372 -0.20989753 -0.4922234 -0.011036705 0.43085352 -0.034395073 0.42051828 -0.22171156 -0.2657781 0.19016756 0.28494924 0.19057176 0.4313517 0.43530968 0.08688992 -0.43697286 0.28229386 -0.32547134 0.10414041 0.18531597 0.29352772 -0.30043128 -0.30802092 -0.35736647 0.23016283 -0.08370646 -0.08873912 0.14581284 -0.058628283 -0.24571688 -0.4316996 0.20623034 0.029647786 0.4915227 -0.256332 0.353793 0.2379936 -0.10600705 0.45553577 -0.3514466 0.078716435 -0.42266318 0.33399254 0.49872667 0.31298742 0.29687363 -0.20505618 -0.2140014 0.21714509 0.36457217 0.32352355 0.4113899 0.10959958 -0.09792652 0.30762365 -0.4889558 -0.0155310985 0.47375304 -0.3695609 -0.18808901 -0.41874602 -0.4512024 0.021481145 -0.22152174 -0.48019558 -0.26953423 -0.32148254 -0.04045491 0.40262416 0.16825733 -0.021312723 -0.4731238 0.09818585 0.18035267 -0.2114408 0.2696725 0.40626973 -0.21353504 0.2722757 -0.23144482 0.030811355 0.21475992 -0.40686035 0.37100986 -0.54426706 0.42829022 -0.26768836 0.2822469 0.1670667 -0.41551366 -0.26187584 -0.0087066265 0.44732004 0.1362992 -0.12624003 0.37989658 0.3394839 -0.27518272 -0.41233173 0.47679585 0.36362383 -0.20344685 0.14949647 -0.019526806 0.39761388 0.4467543 -0.060471393 -0.3208421 -0.08196901 -0.32551885 0.41195548 0.12920061 -0.10978067 0.40113035 0.3571211 -0.08462415 -0.029664384 0.08632835 -0.41823155 0.37573692 0.3910924 0.14369272 0.42520183 0.09689414 -0.050791267 -0.22050644 0.29010043 -0.33654255 -0.0044178953 -0.4696843 -0.17751594 0.24605098 -0.22179578 -0.18297015 0.2607549 0.3225689 -0.36919385 0.03428529 0.013483056 0.2383985 0.0064228475 -0.018870205 -0.2823289 -0.48710597 -0.26755083 0.43465108 0.45432734 0.30565277 -0.48146582 0.03247937 -0.44761682 -0.28900835 0.28297654 0.2782489 0.027582675 -0.26114073 -0.21336362 -0.20885022 0.3728312 -0.42267978 -0.34554663 -0.062754005 0.23347256 0.19885154 0.39814964 -0.07331608 -0.40414378 0.43848303 0.3890861 -0.3401643 0.25373635 -0.23255526 0.06668527 0.4063184 -0.005922546 -0.45092672 -0.02876945 -0.47199678 -0.34481767 -0.5013493 0.32943445 0.39118153 -0.26294798 -0.26586488 -0.3280867 -0.39679906 -0.33174518 0.48827907 0.045507755 -0.25738046 -0.31212002 0.11172821 -0.4880075 0.32331085 0.0059013925 0.45036623 -0.3798972 -0.14528582 -0.23493975 -0.23060274 0.17055938 -0.26938117 -0.4057499 0.18256278 0.047297575 0.101106554 -0.013800802 -0.04974823 0.19004977 -0.43891707 0.12989789 0.11296834 -0.16854306 -0.19738011 0.21796916 -0.12134191 0.18410796 -0.25973338 -0.08477735 0.42734858 0.14182855 -0.36142972 0.21107396 -0.15722097 0.13205536 -0.4647283 0.17730261 0.13151047 -0.1266634 0.12544797 0.37542868 -0.10384036 0.340811 -0.37412554 0.44139656 0.4195701 -0.30174884 -0.078172274 -0.022577822 0.36374596 -0.41602674 -0.081934035 0.013304002 0.5441539 -0.30914807 0.24992108 -0.07646148 0.062253054 -0.17788248 -0.13224944 -0.120963335 -0.2799616 -0.11559262 0.19097565 -0.13426864 0.39751235 0.193934 -0.13588169 0.38622496 -0.10263345 0.41667497 -0.11934704 -0.06757716 0.26462254 -0.12915713 0.1806088 0.380689 0.13870618 -0.41852438 -0.42092964 0.33564565 0.22003424 0.5164778 -0.29336208 0.46723697 -0.4742827 0.18312748 0.1185972 -0.13303037 0.14954428 -0.32880569 0.3238617 -0.3093785 -0.33782214 -0.33331442 0.13914259 0.46821254 0.04506494 0.09587372 0.29667908 -0.13123652 0.4179491 0.47603723 -0.43308058 -0.37615156 -0.21976088 8.1815873E-4 0.22566998 -0.23077272 0.39704368 0.2760429 0.26881358 -0.19165626 0.32609448 -0.28879747 0.24706389 0.056273934 0.32924923 0.3520323 -0.10111575 -0.4663912 -0.30218768 -0.3755034 0.2985308 -0.2741199 0.35021132 -0.23296405 -0.19047788 -0.23271255 -0.11585188 -0.44844994 -0.5072703 0.29887196 -0.16778575 -0.39304298 -0.09654006 0.047133107 0.30444562 0.034389004 -0.44784343 0.19545348 0.22186968 0.24177684 -0.44875687 -0.059077326 -0.27049583 -0.32444453 -0.12555134 0.0068541956 0.30767554 0.3898281 0.4339233 0.391017 -0.4125651 0.28830463 -0.30345318 -0.38745326 -0.42524412 -0.51464456 0.44174793 0.33194393 0.14510348 -0.41388574 0.1494149 -0.2768414 0.17886032 0.07935039 0.16722383 -0.26031387 0.08762753 -0.22917339 0.11419692 -0.11719975 0.025411908 -0.43315455 0.2932913 0.36412656 0.19464138 -0.052586824 -0.2033934 0.0632653 0.46729532 0.10287094 0.007884374 -0.11506195 -0.27452397 -0.2604482 -0.1609872 0.23641399 -0.009132135 -0.24023078 -0.028664866 -0.27208915 -0.41219854 -0.44079444 -0.43301517 0.007115396 0.46684507 -0.2447964 -0.3594375 -0.40089855 -0.029813733 -0.12769322 0.37517032 0.22026752 0.2612646 0.12563051 0.10842181 -0.15519547 -0.39081913 0.02840137 0.36867106 0.43092552 -0.039639626 0.29775608 0.4379877 -0.44012293 0.023540156 -0.32503188 -0.45060843 0.036065493 0.3814612 -0.27125096 -0.23772962 -0.16219579 0.2173782 -0.47633383 0.47050065 0.4775724 -0.06922419 0.29715526 -0.48418152 -0.31920174 -0.0113315275 -0.38347158 0.019116906 -0.2330712 0.44157356 -0.10028452 -0.17572416 0.25351474 0.30255193 0.38413814 -0.42757252 0.026297431 -0.10295376 0.46824342 0.4519428 0.42609695 -0.45422673 -0.3663742 0.29303652 0.43697754 0.25774303 -0.17625012 0.017407404 -0.17642832 -0.4248378 0.15992308 0.2784762 -0.20719306 0.367823 0.30999807 -0.2599595 0.12996322 0.13907151 -0.21179186 -0.1958008 0.38820878 0.3948954 -0.35330957 0.35656196 -0.06640663 -0.29173464 -0.27714655 -0.27261376 -0.06007015 0.37833768 -0.30209902 0.28222743 -0.40376714 0.0062753977 -0.29982883 -0.104172654 -0.16703478 -0.12488238 0.10032601 0.16322263 -0.09442061 -0.22297075 0.4067751 0.25610268 -0.05467367 -0.21721439 -0.071386024 0.32964247 -0.49867222 -0.47545433 -0.03965116 -0.23145953 -0.30308008 -0.2507085 -0.24174188 -0.24284756 0.25929207 0.25152066 -0.4818231 0.46662202 0.18340528 -0.18133622 -0.10971167 -0.39258426 0.19500366 0.48479638 0.3187002 0.2420419 -0.49051204 0.20973864 -0.39203116 
-0.42031485 0.09504981 -0.28917947 0.19939315 -0.30947062 0.36746728 -0.33998266 -0.117408745 0.26693836 -0.32463396 -0.05679333 -0.37141803 -0.28386092 -0.32457185 0.38758028 -0.4583806 0.47195807 -0.49579942 -0.20117864 -0.033953175 -0.33678347 0.48814481 0.18126343 -0.35256326 0.48963428 0.36528066 0.35557607 0.3024959 -0.043969996 0.36672062 0.18579988 0.10472355 0.08923846 -0.26216212 0.42931104 0.27738488 0.14209741 -0.33340654 0.43070367 0.32485723 -0.4260155 0.12876642 0.49741814 0.43846706 -0.20552865 -0.12973507 -0.18371163 0.24963221 -0.25224143 -0.42716998 0.16927086 0.4160131 0.4154616 0.31423748 -0.38105643 -0.45995 0.2651303 -0.45094144 0.4576972 0.44111383 0.42123762 0.1930509 0.46036214 0.18218273 0.12276745 -0.13293922 0.47481102 0.120281175 -0.38381752 -0.015352441 -0.13004662 -0.105354205 0.24363834 0.25807765 0.3052403 -0.48976395 -0.21831313 -0.202359 0.07691579 0.2637795 -0.47534853 -0.2555412 0.08640219 -0.26020184 0.0832144 -0.06677473 0.10544807 -0.018948246 0.4722255 -0.085997924 -0.35528138 -0.04860719 -0.28953344 0.15053192 0.1002022 0.35322562 -0.23225257 -0.1334239 0.22853914 0.19466832 -0.21028069 0.15661404 0.00804454 -0.48023298 0.10897655 0.38411772 0.18684629 -0.43840307 0.43947905 0.1811418 -0.17074838 -0.12184148 0.07785009 0.38429624 0.39167646 -0.42797172 -0.34823638 -0.0028123541 -0.41161674 0.11721174 0.1399291 0.059521694 0.18699376 -0.12772244 0.23059684 0.41308093 0.30325833 0.43625593 -0.25529242 -0.07019042 -0.25200662 0.39450517 -0.05241496 0.27330765 -0.19955388 0.066105604 0.3825486 0.058107592 -0.44251013 0.13554631 0.11388474 -0.26562154 0.47435525 -0.38537 0.34855533 0.09070034 0.10585199 0.51068103 0.47510454 -0.23239598 0.5015528 -0.38658875 0.37686732 0.10324162 0.5637433 -0.06679113 0.28523687 0.25869662 0.49754757 0.23091105 -0.35475194 -0.43057323 -0.067996815 -0.20349936 -0.29421708 0.08405305 0.48046878 0.35218224 -0.45506272 -0.32915223 0.13915718 0.2587112 -0.3360765 0.17803 -0.4378051 -0.16985652 0.05199547 0.06572209 0.3409096 0.38821456 0.25278062 -0.2830163 0.42479655 0.2541285 0.16153239 0.21855548 -0.07686471 -0.20501098 0.44264457 0.5437621 0.38560045 -0.04626213 -0.011008743 0.032200653 -0.47131187 -0.07771733 -0.20668371 0.28103766 -0.28506628 0.032042157 0.33499998 0.3224348 -0.025066447 0.3693642 -0.40665853 0.34280694 0.18836637 0.2767912 -0.17792483 -0.15967952 0.036867782 -0.28887218 0.20037857 -0.06679211 -0.13931112 -0.05467599 0.14410949 -0.41249046 -0.35644644 -0.12621082 -0.28824878 -0.17006503 0.27024078 -0.40403774 -0.017627714 0.3328658 -0.17603855 0.0017857922 0.22160271 0.24317454 0.20484431 -0.1762192 -0.1342131 -0.31871724 0.40228948 0.3638712 -0.39243957 0.1565931 -0.32138428 -0.036305234 0.1667967 -0.12700611 0.38801968 0.11714041 -0.43140423 -0.021203022 -0.15521957 -0.46681446 -0.42700124 -0.30882537 0.28907654 -0.032065608 0.39017454 0.38643155 0.4532379 -0.4833268 -0.34228048 -0.24213916 -0.2328555 -0.5397574 -0.5886432 -0.24479468 0.38118538 0.17366649 -0.3356827 0.10136321 0.33807454 0.38923666 -0.09349413 0.28590238 0.03492991 -8.199294E-4 -0.24764247 0.18457386 0.12692349 0.46775267 -0.022402067 -0.037148643 0.05445691 0.33393466 -0.15796572 -0.067855865 -0.48845008 0.13848238 0.19291338 0.3854909 -0.10812998 0.32746908 0.24333522 -0.40336245 -0.48795626 0.21499522 -0.37784994 0.03289589 0.02035062 -0.1925606 0.3776933 -0.37977707 0.38221776 -0.26878506 -0.38758728 0.5045013 0.34130493 -0.17138402 0.05548577 0.44068196 0.4373543 0.098018095 -0.14821748 -0.041523002 -0.45495558 -0.46595058 -0.1547232 -0.22441754 0.37251592 0.027267782 -0.1426902 -0.33706093 -0.47794276 -0.2676799 -0.2637712 -0.1745078 0.116335966 -0.038109683 0.13600147 0.3393144 0.2634243 -0.30867776 -0.035907708 -0.36251032 -0.3494024 -0.30438268 -0.31711942 0.03197777 -0.03111828 -0.005528338 0.35784236 -0.3587849 -0.3304601 -0.13842821 1.9495454E-4 0.09014884 -0.39986598 -0.16801806 -0.302647 0.39363858 0.3082867 0.063053824 -0.30918214 -0.035428632 0.06785106 -0.47205538 -0.17560309 -0.266135 -0.12275287 0.27389094 0.26689228 -0.17884353 -0.17497225 -0.2659281 0.33276296 -0.17333592 -0.23662582 0.08530826 0.28000954 0.23517245 -0.030720001 0.48398262 0.2949934 -0.036095448 -0.3188477 0.042233087 0.40476337 -0.030969968 0.24750939 -0.15594985 0.13482393 0.48340932 0.28387466 -0.37286854 -0.29515222 -0.14035141 -0.22533888 0.0054081846 -0.43731478 -0.5114569 0.43824583 -0.023536885 -0.4184101 0.024621058 -0.35790882 -0.23729952 -0.15349315 -0.2684659 -0.3337497 -0.20460552 0.48219374 0.38607663 0.06472284 0.015867157 -0.21771802 0.028861267 -0.12137364 -0.09505655 0.46276155 0.25989738 0.17462517 0.064375326 0.36303586 -0.35755694 -0.35449946 0.13970992 0.25043675 -0.37684095 0.2572771 -0.18793474 0.1815953 -0.41050982 -0.48169875 -0.1378991 -0.29175815 0.41822743 0.26638502 -0.48683205 0.25647718 0.47001466 0.36960423 -0.50267696 0.22218072 -0.31962037 0.17628069 -0.20857789 0.18491177 0.27696344 -0.04933193 -0.41253334 -0.3729649 0.2641827 -0.035525512 -0.37703437 -0.050758004 0.25714236 -0.13165818 -0.16221659 0.0573982 -0.049243882 0.4051164 0.45865202 0.26834083 0.15031195 -0.37843204 -0.15642744 0.33702335 -0.023736212 0.2571143 -0.3843781 -0.39797768 -0.54588526 -0.06546294 -0.37100676 -0.44044948 -0.48177743 -0.115919665 0.035601728 0.4086103 -0.5010753 0.34394315 0.37893367 0.49257928 0.12435578 0.4997291 -0.13341317 -0.49330202 -0.2609607 -0.39168924 -0.026303345 0.40991133 -0.1002613 0.43126526 -0.3093501 -0.24444565 0.39180887 0.1835135 0.3614537 0.17473179 -0.34682748 -0.33986616 -0.10563397 -0.34369195 -0.36019096 -0.31997505 -0.52701926 -0.07853649 -0.18984014 0.32399735 0.23297413 -0.31867096 -0.1666347 -0.36259106 0.25227383 0.09257037 0.21538375 -0.32453167 -0.12076676 -0.09638096 0.009921497 0.13799177 0.37832242 0.286199 0.26778805 -0.27522358 0.27194145 -0.012162754 -0.13147901 -0.5115375 -0.03345574 -0.45586288 -0.386944 -0.028992819 -0.0696179 0.29210812 -0.35444283 0.51295626 0.43718827 -0.18030329 -0.107513785 0.3684413 0.3379853 0.14390114 -0.15272978 -0.4695607 -0.4704939 0.2190475 -0.4674203 0.43401355 0.24841222 0.3630343 -0.21011049 -0.20133744 -0.3618535 0.51259625 -0.38398126 0.18708807 -0.1771818 0.40187237 -0.334178 0.42639482 0.32336256 -0.19246641 0.027122732 -0.15760927 0.42350245 0.046613354 0.31171745 -0.26859373 -0.071017504 -0.22715689 0.38751164 -0.051908184 0.48879445 0.24994199 0.064634204 -0.28400144 0.006599328 0.44896019 -0.35270047 -0.28277695 -0.33201605 -0.16881484 0.47415888 -0.12044463 0.1371749 0.38915563 0.30656406 -0.2004914 0.27933154 0.073749505 -0.08542896 0.55618554 -0.25661322 -0.07134139 0.51872057 -0.3986176 -0.345315 -0.47571304 -0.21453053 0.06452744 0.16744794 -0.4066791 -0.35516834 -0.21390566 -0.23838714 -0.10977512 0.5242183 0.26655355 -0.1148437 -0.31052524 0.5400479 0.012876678 0.18980247 0.45835108 -0.17163749 -0.22139877 -0.021166665 0.5553352 -0.06842628 0.09214889 -0.31417087 0.3452566 0.20410024 0.47930768 0.24311584 0.25690466 0.32675228 0.017704245 -0.40463322 0.4960767 0.49851745 -0.11371766 0.4275461 -0.3006041 0.049907763 0.16454066 0.23030475 -0.007182952 0.5965527 -0.122157626 0.3745662 -0.3474917 -0.029858185 -0.05390983 -0.39271837 -0.19216183 -0.4475626 0.24938875 0.2865413 -0.26235038 -0.29860622 0.4647896 -0.16715327 -0.14267622 -0.43574595 0.035551246 -0.20872577 0.40005383 -0.25512442 -0.18208513 0.3790857 0.37033942 0.40606406 -0.4368723 0.34663624 -0.22307198 -0.22775179 -0.068389915 0.06174864 0.099457376 0.017192297 -0.15491723 0.31646034 0.2314311 0.13028114 -0.46792665 0.3629742 -0.058048192 -0.34319654 0.33442998 -0.03567858 -0.3942088 -0.0962655 0.40839022 0.4019135 0.17774874 -0.40047696 0.36362186 0.15736726 -0.06770075 0.44445643 -0.17837383 0.03497527 -0.036691517 -0.39323196 0.18035091 0.53055704 -0.41169518 -0.32550997 0.005776443 0.4492301 0.0016194797 -0.15657541 -0.46995792 -0.008995348 0.024436919 -0.11050608 0.26030356 0.039824903 -0.3853834 0.007490702 -0.32766446 0.09098799 -0.34435275 0.119520836 -0.4116957 -0.4889047 -0.103137925 -0.16905832 -0.23328121 0.050243173 0.27021983 -0.093712986 0.2522982 -0.4890049 -0.47731674 0.204183 -0.41871497 -0.36522177 0.4492524 -0.04773554 0.31913143 -0.42625076 -0.088993125 -0.296496 -0.08350224 -0.16700117 -0.28772175 -0.32156947 0.12081698 -0.43584067 -0.12916492 0.14227438 -0.24967267 0.06096392 0.41879115 0.41606387 0.18381555 0.100950874 -0.4965455 -0.082794145 -0.4219261 0.4765367 -0.21232846 0.1214726 0.35230398 -0.029218376 0.035785664 0.44726843 -0.32497093 -0.39876342 -0.4581796 0.2401588 0.059317987 -0.11449426 0.41396037 0.39606908 0.36974937 0.11242813 -0.30107504 -0.22864212 -0.4137013 -0.42734942 0.1752499 0.0012539459 -0.4077799 0.19198713 0.39653566 0.35958734 0.34258363 -0.37550786 -0.41348153 0.17780101 0.32115433 0.3355112 0.16765718 -0.49341324 0.16307026 0.3001573 -0.25983614 -0.01869748 -0.34343648 -0.3391718 0.2588592 0.33340454 0.16111428 0.1470688 
-0.44422808 -0.40467355 0.054694615 -0.14286393 -0.4706399 -0.22794987 0.34385344 0.41560203 -0.18728746 -0.16743991 -0.23084097 0.35500073 0.38428235 -0.07135185 -0.014105999 0.2797425 0.3534807 0.10377641 0.26157156 -0.0037222847 0.045592934 -0.46757945 -0.2372644 -0.2272523 0.40944594 -0.10905169 0.38394848 -0.4711681 0.39690492 -0.3461125 -0.26076385 -0.025258226 -0.18027692 -0.46380532 0.24583097 -0.27680185 0.20204441 0.13520652 0.19590291 0.30934727 0.31515843 0.0647883 0.33384958 -0.1291047 0.40853843 -0.47914284 -0.2645346 -0.03488541 -0.37169546 0.26779133 -0.28034422 -0.3735356 -0.24304546 0.49347335 0.11335376 0.31042102 0.19891527 -0.15334864 0.43936118 -0.19572002 0.087319225 0.23842052 0.49805015 -0.45984784 0.4946111 -0.3319402 0.3748043 -0.00273866 -0.009101764 0.4153518 0.119823635 0.042057477 0.21454953 0.4315089 0.21956338 0.12597333 -0.301514 -0.34067115 -0.48866552 0.22288978 -0.09583072 0.30229774 0.36352146 0.28697416 0.35344604 -0.20661786 -0.1939273 -0.22197564 -0.2717326 0.30372328 -0.22642212 -0.49273187 0.059320267 0.16875854 -0.21276143 -0.34965476 0.45696038 -0.46992913 0.20762649 0.27375403 0.35057318 -0.18185739 -0.34237525 0.15589112 -0.10340052 0.46695644 0.33860192 -0.05005394 -0.01778983 0.3426372 -0.2681087 0.031461574 0.31852895 -0.008758202 -0.37137577 0.4358248 0.1710999 -0.2932215 -0.49436745 0.36806247 -0.37573203 -0.17887133 0.023424786 -0.29960987 -0.29303643 0.37497342 -0.18543333 -0.3049877 0.2946234 -0.49997598 -0.18919966 0.026800368 -0.45584762 0.45278946 0.035573527 -0.31434932 0.37620416 0.18526237 0.21766804 0.115463376 -0.18576887 -0.22511934 -0.4618292 0.2176157 0.014917932 -0.18320246 -0.42091626 0.36243644 0.34113622 0.09244452 -0.15861371 -0.19508317 0.34485355 0.4485579 0.16842644 -0.008257493 0.140686 -0.16817725 0.20322175 -0.38348594 -0.28365055 -0.17029162 0.02513628 -0.16604617 0.43785357 0.013229376 -0.4575821 -0.45119485 -0.48595896 0.42345944 0.28398204 -0.11936372 0.18737702 0.35875958 -0.021188602 0.14750981 0.15602033 -0.3907527 0.012894263 0.061482422 0.23462641 -0.28711492 0.4086639 0.34706986 0.011688336 -0.2849756 0.48018023 -0.2459978 0.4656684 0.191509 -0.20079169 0.2085472 0.17389962 -0.0822907 0.19386952 -0.1294648 -0.43881184 -0.28572246 0.15682824 0.17866375 0.46494374 0.42437893 0.3908128 -0.22354423 0.39801356 -0.043349706 0.4863099 -0.28012627 0.23311202 0.47391963 -0.19249903 0.3104808 0.11533624 -0.20984112 0.06172335 0.10287917 -0.4798878 -0.1879482 -0.379868 0.45892334 0.20944732 -0.35587296 -0.23595747 -0.2705316 -0.21696639 -0.16316627 0.12489846 -0.37850153 0.39636984 0.46988854 0.42138195 0.41452706 0.40543684 -0.289197 -0.33859974 -0.3009525 0.187214 0.37096322 -0.49703637 0.48265934 -0.48236176 -0.08822261 -0.4705949 0.07704396 0.0932888 -0.19091727 0.33973154 0.43813413 -0.20199051 0.06835926 0.098306 0.422409 0.11436636 0.039260384 -0.150909 -0.31888664 0.44282684 0.11091504 0.3155764 -0.1224661 -0.048176702 0.35876048 -0.37843943 -0.33417958 0.47400945 0.10975787 0.39854306 0.090826295 0.035738446 0.10596289 -0.49323717 0.17606635 -0.11255228 0.22470173 0.24020274 0.04080342 0.25795868 -0.4324478 0.2836293 -0.16820854 0.47188342 -0.31889427 -0.08152496 -0.31729305 0.09764359 0.26196295 -0.006139852 -0.0835076 0.2591771 -0.23499076 0.47188386 -0.012534531 -0.46218082 0.23486212 0.04880862 0.22372848 -0.02297425 0.17415956 -0.47229356 -0.3799491 -0.1534974 0.33127785 0.11923029 0.36707905 -0.16755846 0.19900809 -0.35775045 -0.4781371 0.147329 -0.4887735 0.43189636 -0.14099585 -0.34685415 -0.3370987 0.48538738 0.17926273 -0.4974477 -0.13083498 0.16270182 -0.030402215 0.1562414 -0.45176426 0.12584643 0.27963483 -0.14184803 -0.21268457 -0.20873572 -0.01034749 -0.15942039 -0.3073449 -2.0816746E-4 -0.120686084 -0.21397337 0.1833309 -0.39229098 0.41366965 -0.2942884 -0.020931933 0.41913998 -0.4228539 0.41231418 0.27319825 0.054537438 0.43645704 0.034009688 0.08247445 -0.20766947 0.17949957 -0.41776314 -0.07416124 0.35249555 -0.3785393 -0.15230712 -0.43267134 -0.252583 -0.15819673 0.22074576 -0.44657403 0.46040562 0.310405 0.36546263 -0.39444315 -0.3386216 0.46398363 0.3877153 0.22165228 -0.43438432 -0.29930884 0.27598554 0.23120335 -0.19121508 0.3224457 -0.26007393 -0.49116078 -0.30056256 0.3767823 0.22860861 -0.49306 -0.19529912 -0.020538941 0.28973317 0.19428329 -0.021400942 -0.31630915 -0.16962193 -0.09464707 -0.16526036 -0.498602 0.22659117 -0.4724138 0.4238436 0.12194398 0.12186133 0.043620408 0.2612061 0.27812788 -0.06911767 0.18214259 -0.1688662 0.039176505 0.48146042 -0.4332556 -0.5003787 -0.40433496 0.038266525 -0.07491618 -0.097284906 0.13543975 0.36732787 -0.2677895 0.1119151 -0.30585134 0.11388781 0.39460844 0.36869216 0.15262306 -0.034352843 -0.18406557 0.48469767 0.029569315 0.45218652 -0.27057788 0.14542837 0.355205 0.19857176 -0.31391695 -0.27216867 0.048149165 0.052047137 0.0019103102 -0.27659705 0.41467166 0.45203224 0.15363248 -0.32602477 -0.23791471 -0.14058337 -0.39206412 0.1961678 -0.26014316 -0.167384 -0.28310776 -0.13022056 -0.39639214 -0.4698267 -0.05186103 -0.35329053 0.46842945 -0.018878061 -0.10944127 0.07325053 -0.34863618 -0.43548903 0.18282701 -0.18647023 -0.44922593 -0.34968817 0.3677548 -0.26624036 0.14942548 -0.3941462 0.01793286 0.43036723 -0.10241298 -0.21460518 -0.3331965 0.38441637 -0.20174286 0.031173937 -0.4477668 0.3978442 0.21652816 -0.48060176 -0.13924874 -0.052722946 0.43465027 0.3149853 -0.2411394 -0.23754662 0.12787561 0.44374785 -0.36382678 0.23516864 -0.24345203 -0.39685705 0.104459345 0.24731587 -0.22584149 0.2018484 -0.11962347 0.43369856 -0.38798302 -0.21943973 -0.48106077 -0.25109467 -0.15654722 0.016974255 0.36277774 0.15046215 -0.23466377 -0.2959739 -0.44929224 0.0931769 -0.051952183 -0.019081548 0.38853744 0.3194891 0.101212606 0.38731384 0.39532867 -0.17465311 0.49364796 -0.1228556 0.24448472 0.10359709 -0.09676439 -0.46124235 0.3082835 -0.03152842 -0.29148978 0.20364705 0.11002707 -0.4310795 0.4512448 0.43418792 0.4015723 -0.032213915 0.3888981 -0.4813933 -0.3753296 -0.177972 0.26858556 0.35931 0.1252464 0.3692092 -0.47159016 0.1516784 0.1482376 -0.23112375 -0.39771196 -0.24381563 0.43188754 -0.33001655 -0.11832385 0.16521887 -0.39752454 -0.26117536 0.0099111395 0.0541784 -0.08201689 -0.34399188 0.09188631 -0.16851042 0.3020106 -0.34451225 0.18078758 -0.20326766 0.33820418 0.1698986 0.10450516 0.34468517 0.43968275 -0.36433008 0.41730952 0.39239645 -0.03397939 -0.12886322 -0.25310385 0.10933081 -0.47914234 -0.23553745 0.19028346 -0.22904015 0.071312435 -0.34825322 -0.14307033 0.17551148 -0.41044742 -0.09478886 -0.13206652 -0.39236403 0.26979408 -0.2966228 0.32923543 -0.38582766 -0.18134432 -0.3254791 -0.34875843 0.2107398 -0.19379655 -0.4629051 -0.035638645 -0.3438343 0.44587457 -0.3865474 -0.1057324 -0.3010058 0.4116712 0.0117294695 -0.15252407 0.179947 -0.3386385 -0.36835492 -0.21886654 -0.4100145 0.022674767 -0.2622278 -0.16984162 -0.32385263 -0.40687123 0.018151533 -0.09429622 -0.19005416 0.21693663 0.21328199 0.39907515 0.011642073 -0.26624623 -0.3324114 0.034388945 0.35005054 -0.24209921 0.14555782 -0.4529569 0.1528584 0.006176589 0.1206064 0.30034885 -0.37739486 0.28695506 -0.50016725 0.0420583 0.25881958 -0.05325675 -0.043340676 -0.36566296 -0.048793532 -0.3691512 -0.15411325 -0.06082691 -0.44909912 0.36846572 0.40584543 0.089659 -0.19808088 0.32687378 -0.058125284 -0.05644404 0.4906861 0.13303876 -0.07759836 0.16375037 -0.47355577 0.27837166 -0.152423 0.46375993 -0.13892783 -0.3578181 -0.25291082 -0.1965784 0.1554853 -0.03767504 0.08863496 0.28308544 0.4122269 -0.27130252 0.29817477 0.32569534 0.2005758 0.27454546 0.3633074 -0.012197674 0.0011929094 -0.1311807 -0.3244386 0.19981918 0.2229068 -0.20502843 -0.14634052 -0.28453404 -0.3231879 0.35496023 0.18249322 0.043730013 0.30820882 -0.3840019 -0.4796813 0.12314001 0.20991695 -0.29164985 0.39655137 -0.05074199 0.33383718 -0.33289787 -0.39669535 0.30223027 -0.27950808 0.25266948 -0.0051498055 -0.23526101 0.36772338 -0.1231592 -0.03517617 -0.1122152 0.39149123 -0.2674688 -0.4339495 0.3255104 0.18437807 0.26748767 -0.33549935 0.1779658 -0.18095306 -0.39566278 0.22865838 -0.2905892 0.4557435 0.45617825 0.47535628 -0.39617455 0.20291096 0.23107465 -0.38026348 -0.2060721 -0.08487414 0.0052502737 0.11305186 -0.23725134 0.27616337 -0.1185802 0.4152091 -0.22734718 -0.15368782 -0.08447542 -0.2698279 0.19768561 0.04691147 -0.29305786 -0.14972714 -0.42738882 -0.41132593 0.051102743 -0.2556191 0.41598085 -0.47608054 -0.18561052 -0.36480865 0.16927728 -0.105389535 0.31642342 0.10728837 -0.13115452 -0.004132204 0.09582207 0.20074722 0.22838017 0.32012454 -0.173228 -0.45575193 -0.08867497 -0.36484504 -0.40247717 0.3440625 -0.3230507 0.032164738 0.46999457 0.42257172 -0.05835761 0.41766772 0.44649825 -0.42306983 0.054698687 -0.32233685 -0.45448816 0.23942596 0.24592298 -0.3390448 -0.32342437 -0.20807037 -0.22740662 0.20892273 0.40320235 -0.08188481 0.26265946 
0.4791828 0.058253683 -0.36461 -0.18685499 0.2585363 0.37531698 0.26442185 0.3301117 -0.3128582 -0.36388257 0.240739 0.33373797 -0.39123204 0.065583214 -0.30765876 0.47637263 -0.4568588 -0.45921108 0.121387795 -0.16475314 -0.07246259 0.45996407 -0.3672182 -0.3741778 0.051734235 0.23827279 -0.2584523 0.20197514 -0.43725067 -0.33264637 0.17498216 0.274422 0.4666838 0.30468372 -0.28835198 -0.08321407 0.013919982 -0.3471222 -0.363201 -0.27987117 -0.28493577 0.13236487 -0.16556624 0.4119983 0.012263379 -0.23965347 -0.10752684 0.36062327 -0.1975639 0.007507452 -0.15842988 -0.35917935 0.08595149 -0.49702877 0.30854803 -0.2341613 -0.4811392 0.16306281 -0.048062902 -0.23501974 -0.47060275 -0.18292661 -0.002639691 0.0112356525 -0.032264065 -0.39388648 -0.41306007 0.09850326 -0.03799162 0.2561373 0.41104373 0.076030105 -0.2582483 -0.17916882 -0.14578794 -0.32880366 -0.15260871 -0.24450585 0.43219653 0.27022678 -0.22708628 -0.31269237 -0.26625896 0.16892946 -0.19374336 0.13592848 -0.33309475 0.09816631 0.22865036 0.20174159 -0.01588044 -0.0042937873 0.4285423 0.23555866 0.33589157 -0.14015923 -0.11523126 -0.20785756 0.1617423 -0.33885866 -0.114547536 0.34685194 0.01222519 -0.101327665 -0.21805757 0.24494433 0.38320115 -0.017606245 -0.128603 -0.24843028 0.4696236 -0.38941014 -0.47723985 -0.04215407 -0.25177675 -0.4579392 0.20466109 -0.07564551 -0.09865377 0.27214107 -0.0012030398 0.48043102 0.43559244 -0.40875003 -0.4380018 0.12633967 0.38926902 0.19030099 0.39071167 -0.37595102 -0.22775196 0.056252602 -0.2824466 0.27898502 -0.25276554 -0.49293655 -0.49335775 0.14770503 0.11472659 -0.3012793 -0.16220757 0.49450827 -0.48335415 0.39282155 -0.330699 0.3344147 0.49618042 -0.26365885 0.41702583 -0.36862463 0.43279758 -0.15919837 -0.27425167 -0.07907198 0.36361834 0.27979907 0.20437917 0.23863468 -0.07728029 0.22501428 -0.025175583 0.06807019 -0.14114748 -0.05911975 0.45344839 0.31598207 -0.28414628 -0.093287766 0.27652997 0.4478635 -0.45157033 -0.115280576 0.08779153 -0.44655213 -0.2615656 -0.13702226 -0.3455311 0.2217694 -0.19715722 -0.2862843 -0.39498016 -0.17753308 0.37995866 0.39678898 -0.36176208 -0.33139208 0.36008248 0.1504441 0.21785223 0.13658734 -0.47581372 0.3579499 -0.38851228 0.40365672 0.41753897 0.477135 0.29207677 0.25696576 0.19777745 -0.17503262 0.26043332 0.29450154 0.32954565 -0.23553526 0.41304865 0.44677126 -0.38098353 0.4646369 0.29253674 -0.16318904 0.18597247 0.36208364 -0.16016765 -0.31802773 -0.3443921 -0.24148369 -0.449041 -0.16872197 -0.008568476 0.028687675 0.19345877 0.34629917 -0.13940543 -0.062397994 -0.19883607 0.1077912 0.04598865 -0.3524937 -0.092926875 -0.39480814 0.013164829 0.028378563 -0.030283496 -0.3648811 0.11630497 -0.38874274 0.30538294 -0.0342574 -0.3454328 -0.09116369 -0.45216942 0.35048616 0.014230315 -0.54929245 -0.21003745 0.2178595 0.071513966 -0.23210706 0.065381125 0.1098391 0.0064435266 -0.3406912 0.4427237 -0.18162064 0.22641799 0.034808315 0.29638687 0.42716512 -0.35605884 -0.24073818 -0.149764 -0.35085467 -0.43902123 0.10430279 0.030535646 -0.2891891 0.16231918 -0.50222635 0.012035165 0.3344663 0.17113934 0.27567637 0.3544489 -0.19578165 0.28462172 -0.23269543 -0.06246668 -0.07541042 -0.3528914 0.24121113 0.24285758 0.17406295 0.046240482 -0.28312853 -0.15326118 0.31370178 -0.384198 -0.0868706 0.10351596 -0.2382623 0.42393154 -0.15527481 -0.38450968 -0.049556237 0.26781902 -0.19078058 -0.22891736 -0.22982246 -0.3890128 -0.38654536 -0.34024134 0.25643787 -0.076055646 -0.17093897 -0.38471577 0.22541729 -0.18023904 -0.043223977 0.14499599 -0.3082906 0.21319501 -0.27076045 -0.1763671 -0.20057021 -0.19073252 -0.09330604 0.19351359 -0.03587777 -0.2854245 0.15916322 0.07345605 -0.49489704 -0.4104124 0.15511005 0.3628805 0.15956475 -0.48467675 -0.18922141 0.36651367 0.37085065 -0.42292228 0.17445412 -0.33934602 0.17701645 -0.4044251 0.042794943 0.47219345 -0.20763299 0.14237736 0.05442963 0.13736622 0.34229547 0.3493758 0.027230592 -0.22094584 -0.41916192 0.16878305 0.057432454 -0.5109662 -0.42158458 -0.05083032 0.46984977 -0.40547433 0.30885124 0.18937315 0.42483845 0.061993197 -0.31634668 0.0029226947 -0.50777984 -0.06792087 -0.18535696 0.40395823 0.24746232 -0.14719254 -0.054454476 0.35783467 0.3831342 0.32091522 0.30045766 -0.09121399 0.34116754 0.3112683 -0.33727485 -0.22236757 0.38904512 0.5211375 -0.21232864 0.4039927 -0.2557858 0.11446064 -0.04291227 -0.20968644 -0.12905839 -0.4300193 -0.20936376 -0.38809803 -0.47922653 0.31547233 0.14781523 -0.047072083 -0.21678859 0.43694094 -0.46185744 -0.11509621 -0.36046594 0.28121707 -0.05307263 0.11542339 -0.15554513 0.20226938 -0.34787068 -0.3549987 -0.28559905 -0.23119663 0.58024454 0.41048077 0.51320857 -0.0017708901 0.33908904 -0.023184773 -0.058002707 0.37099093 0.25581774 0.02560764 0.0773435 -0.29380193 -0.15251996 0.18915465 -0.33766797 0.38061982 -0.002534337 -0.23224053 -0.1315822 0.08560566 0.22346005 -0.226371 -0.33898202 -0.46789676 0.20711909 0.4378634 0.21744026 0.46373108 0.30297685 0.5371466 -0.16154277 0.3105046 0.0965856 0.2638503 -0.39967525 -0.23053768 -0.2806344 0.0996312 0.2671947 -0.10372089 -0.2050288 0.35795265 0.30811587 -0.43820983 0.07113968 0.38730437 0.17492282 0.417951 -0.18833974 0.019143613 0.40749317 -0.22434354 0.41925755 -0.25504673 0.06390935 -0.18011238 0.0036832043 0.26602092 -0.15403299 0.070799865 0.41626075 -0.06480546 0.16712777 0.35856774 -0.48883715 -0.2701747 0.35919362 0.43915457 0.05701031 0.2489575 0.34028804 0.3260101 0.13180502 0.18559341 -0.43223116 -0.45659274 -0.2457103 0.36227846 0.13373281 0.0033144564 0.32741368 0.28876197 0.030594463 0.5098397 0.35091457 0.05862273 0.5611264 -0.030610489 -0.3402313 -2.0027166E-4 0.08706081 -0.35203496 -0.2591373 0.33017933 -0.1602089 -0.16038802 -0.20542727 0.06116507 -0.44567293 -0.26373285 -0.067877874 -0.35365617 -0.18558262 -0.25423193 0.10988235 -0.213401 0.5056179 0.048211236 0.08076902 0.6428502 0.3522624 -0.20618661 0.45608392 -0.05316944 -0.16331363 0.33556986 -0.42277884 0.3916699 -0.34943882 0.057104535 0.20024893 -0.26083216 0.2932452 -0.46066797 0.13120493 0.013447375 0.30555606 0.3217169 0.391945 -0.0032474298 -0.19950038 0.10610504 -0.13048902 0.43369547 -0.23058812 0.030422846 0.018943395 -0.19120538 -0.036312632 0.50950944 0.39119497 0.030179422 0.09836752 -0.26548934 -0.050954897 0.4472116 0.052320436 0.04359344 -0.008753815 0.09957132 -0.33530885 0.13211551 0.0027894853 -0.15928863 -0.20336975 -0.3149031 -0.25378075 0.010846757 0.31403756 0.28072187 -0.19134519 0.4572027 0.22201784 0.23719832 0.60582125 0.11057098 -0.029853674 0.40957922 0.22763921 0.36954388 -0.03537882 -0.1343829 -0.13692777 0.31647056 0.26426363 0.45725212 -0.2599981 0.083144106 -0.10164102 -0.0035188298 -0.20349175 -0.27487254 0.17227389 -0.46483344 -0.27773505 -0.39057967 -0.31496307 0.4731135 -0.09393931 -0.40932006 -0.010907212 -0.03293284 0.17085819 0.10485421 -0.37619966 0.3983419 0.41460094 0.1265612 0.2625261 0.14792825 -0.3144879 0.076814294 0.33644825 -0.27793333 0.23227896 -0.44521487 0.13399467 0.18619055 -0.18914117 -0.05828277 -0.2113281 -0.2359813 0.3453704 -0.44317657 0.41642633 0.4111081 -0.31952018 -0.1952558 0.47370234 0.1277597 -0.0015725158 -0.031882968 0.0747971 -0.30301833 0.33373496 -0.4479083 0.1242325 -0.20623507 -0.3818208 0.49272597 0.30382225 0.37733993 0.063827075 -0.29072025 0.109725215 0.0011265723 0.45984614 -0.48713118 -0.38819396 0.08328797 -0.48992714 -0.44414523 -0.34014115 0.24645607 -0.19622798 0.031179897 -0.26302907 -0.30500588 0.18735053 -0.36707202 -0.45931298 -0.097683124 0.3301079 -0.009978986 0.40934134 0.31483808 -0.05073911 0.11576146 -0.03165985 0.47707346 -0.03477737 -0.37103245 0.040641062 -0.11180569 -0.396553 -0.35856575 0.36289275 0.4731315 -0.43236497 0.32856348 0.17231324 -0.34305647 0.23632094 0.27979213 0.218336 0.32342526 0.03221703 0.12320226 0.11410578 0.011555524 -0.3252544 0.3580788 -0.03635159 0.36235642 0.47246554 0.10462847 0.21656746 -0.05601204 -0.15533511 -0.34522012 -0.36278263 -0.45287463 0.44437283 0.4043174 -0.20770092 0.28070623 -0.10145241 -0.049120728 0.31621793 0.17202245 0.41357487 -0.022931362 0.11215988 0.20808963 -0.12655002 -0.050183654 0.46458358 0.39171004 -0.1224951 -0.26874882 0.46192047 0.19278055 0.2577028 0.4925584 0.23833132 -0.15648998 0.5025907 0.44235668 -0.17176001 0.12599252 0.090438545 0.30495355 0.32110596 0.23173639 -0.24974857 -0.28433067 -0.2685422 -0.19615328 0.12556052 0.29759178 -0.22236732 -0.3069121 -0.446501 -0.028970795 -0.204757 -0.1678681 0.25806051 0.11288834 -0.4419779 0.31609264 0.247223 0.2719752 -0.43531668 -0.13343953 -0.32393473 -0.023763921 0.42327788 0.261688 0.12689327 -0.28238416 0.23837 -0.11087145 -0.4782695 0.13559438 0.3681702 -0.37910405 0.20660728 -0.20093441 0.38018134 0.30486426 0.18962668 -0.44471908 0.015290743 -0.41898295 -0.03662317 -0.25355285 0.46052468 0.08086935 -0.22881104 -0.10163723 -0.24520649 -0.32462466 0.17332312 -0.3145983 -0.15495679 0.39923823 0.37556055 0.050182253 -0.31312242 
0.17435342 0.39823562 -0.2319047 0.42873293 0.236797 -0.34575045 -0.37534207 0.1343253 0.14470762 -0.17549789 0.23618814 0.2017163 -0.141729 0.40889373 -0.33128443 -0.04042059 0.20840715 -0.3554639 -0.029061005 -0.27380428 -0.38579482 0.09978697 0.12612538 0.4323572 0.46853524 -0.4252885 -0.19250494 -0.21395227 -0.4609255 -0.3806154 -0.20302907 0.113692254 0.2909066 0.23088957 0.18543859 0.095676415 0.25315216 0.4540256 -0.105780534 0.102972016 0.4232671 -0.32492584 -0.3725651 -0.26459965 0.23220968 0.379119 0.11458551 0.47511753 -0.22118217 0.0074659456 0.35177553 0.047259726 -0.121055886 0.354208 -0.35621473 0.23939031 -0.025324509 -0.37996185 0.4096838 0.4077848 0.10509221 -0.15142992 0.08939598 -0.14689969 -0.055569727 -0.027322572 9.156632E-4 -0.4297813 0.37724608 0.09251079 -0.36640272 -0.40142584 0.20661242 -0.012037317 -0.17299075 0.46452114 0.42330474 -0.011858428 -0.05735482 0.4236846 -0.3214998 -0.492194 -0.26626047 -0.27936193 0.11005007 -0.32320905 -0.49178058 -0.11767123 -0.045460097 0.2488042 -0.16549906 0.18648413 0.09858487 -0.0099100415 -0.38704732 0.5074148 -0.35975096 0.355458 -0.017412074 0.25928086 0.30851412 0.22364572 -0.060899124 -0.4379203 0.030092217 0.46296626 0.42543605 0.016150506 -0.49471623 0.21860743 -0.26557377 0.15881057 0.27560276 -0.23744383 -0.46908242 -0.13150766 0.050531056 0.22121993 -0.26230696 0.008808897 -0.22923394 -0.4225895 0.491298 -0.048737288 0.16594584 0.38482612 0.43709862 0.3367859 0.378729 0.3692889 0.09784142 0.11937311 0.08997847 -0.012051659 -0.31480938 0.06344584 0.034231786 0.39394698 -0.06252766 0.074843846 -0.3053452 0.20569958 0.07973814 -0.25283003 0.40167975 0.18698977 -0.13342789 0.37229943 -0.34429553 0.29958227 -0.01890837 0.040408388 -0.2969092 0.46870854 0.21729878 0.117710404 0.5535116 0.08612723 -0.39332914 0.21939577 0.36603367 -0.4550532 0.20082775 0.28683093 -0.33609572 -0.26117182 0.1427342 0.032629583 -0.43468052 0.45049623 -0.3449711 -0.36783752 -0.20268416 0.18592954 -0.15996069 -0.1461798 -0.31687304 0.08449163 0.22633329 0.39502835 0.3343717 -0.26621747 -0.12954465 -0.21384488 0.5763367 0.36790833 -0.16076337 0.28011602 -0.3360708 -0.37457857 0.24423139 -0.17421241 0.118480235 0.1894247 0.048948586 -0.20266996 -0.18336976 -0.2995165 0.42353866 -0.09899874 -0.12584648 -0.27311772 -0.2505864 0.44052842 -0.13752607 -0.30189663 -0.27038425 0.01601711 0.33845538 0.33000845 -0.19248334 0.61339384 0.652662 0.030117415 0.33323634 0.51656085 -0.22811557 -0.21736683 -0.48894602 -0.27679944 0.1890269 0.21031576 0.1373614 0.14025012 -0.43014067 -0.33111066 -0.104881145 0.2838694 0.1434056 0.30022743 -0.36644304 -0.18987304 0.21600384 0.118893325 -0.14548104 0.08294735 0.48033977 0.32658714 0.16694185 -0.12520666 0.4679882 -0.20542578 0.03984449 -0.35175088 0.09395543 0.35808268 -0.19325243 0.01650733 0.13956693 0.2681552 -0.13968432 -0.06995864 0.17607729 0.4461146 0.4328329 0.37187484 0.34479606 0.080908865 0.0084220935 0.2631226 -0.30226645 -0.31693032 0.30593026 0.2748019 0.35865057 -0.23149465 0.122025274 0.11469167 -0.10256226 0.18791813 0.38354275 0.48854867 -0.27791452 0.10678343 -0.04845873 0.2825217 0.051569346 0.1463563 0.010736954 -0.28315187 0.13813218 -0.37597674 -0.35554138 0.29536682 -0.4378789 0.27498022 0.4232824 0.18433905 -0.045989923 -0.14090148 -0.2720519 0.06181259 0.44175646 -0.2623652 -0.09493898 -0.33350864 0.21985483 -0.43481776 -0.33480722 0.50719297 0.2346715 0.19878088 -0.2108873 0.51155686 -0.35630736 0.1915327 0.12378823 0.3910506 0.24834697 0.2903674 -0.04955101 0.21211617 0.29168808 0.13135022 0.27930677 -0.046945903 -0.08543607 -0.28890666 0.2633562 -0.07403006 0.28162426 -0.18384664 -0.072137415 0.25394863 0.034839876 -0.05960421 0.1822726 0.027189273 0.49011198 0.3485075 -0.36553404 0.116465226 0.23918617 -0.3765722 0.03699831 -0.24210125 -0.098256625 0.32586324 -0.050163116 -0.1702498 -0.1714099 0.18393506 -0.34679037 0.19375165 0.120181926 0.37358657 -0.5689704 -0.49890333 0.21665211 0.14251126 -0.36386964 0.24364245 -0.63415676 0.3101615 0.20305113 -0.28824127 -0.30387354 -0.13881898 0.36034045 -0.40053013 0.019517573 0.18897484 -0.09910106 -0.06324918 -0.24440119 -0.4060524 -0.3983853 -0.3243511 0.30492643 0.43602967 0.42884296 0.4277525 0.3408818 -0.3675655 -0.27916148 -0.042090684 -0.47843033 -0.110790156 -0.18148129 -0.42296797 -0.03985501 0.15458742 0.06294019 -0.3813569 0.43047965 0.26708835 0.5099578 -0.311522 -0.23106898 0.08939372 0.34918088 0.4295974 -0.2824654 0.12256928 -0.22004806 0.20510799 0.12287507 -0.37202314 -0.1694883 -0.48041022 -0.009822846 0.27935097 -0.16033772 0.362697 -0.33013144 -0.3271447 0.02965927 0.33862638 -0.42234161 0.40024734 -0.42647374 0.109321825 0.33615232 -0.023615183 0.09858262 0.3646547 0.2632526 0.046557147 -0.02943171 0.4684176 -0.35205618 0.22138816 0.35352662 -0.023325514 -0.41230232 0.44441798 -0.07169349 0.27001917 -0.119189255 0.15804516 -0.30812588 0.46011925 -0.34033996 0.17299253 -0.04436111 0.26978147 -0.13876215 -0.24405867 -0.16750857 -0.073467165 -0.049056537 0.15668952 0.37508243 0.32469147 -0.37255383 -0.33651882 -0.23303925 -0.12517053 0.15861803 -0.32658562 -0.36399543 0.14607601 0.23938599 -0.3951413 -0.0479591 -0.091859736 -0.049047045 0.40321735 -0.054488685 0.20730975 0.11010211 0.056212597 -0.42402086 0.2701432 0.029573463 -0.2352918 -0.16377583 0.06276905 -0.483655 0.4312327 -0.0012155909 0.39512914 0.005368534 -0.14950323 -0.0859681 0.102926426 0.48121044 -0.32444072 -0.14007805 0.41376182 -0.42705846 0.31576553 -0.17993048 0.19712345 0.44366923 -0.09761893 0.34863493 0.13292782 -0.02626356 -0.21303967 0.07828268 -0.5351247 -0.034836728 0.39068386 -0.18008974 0.17039625 0.45645308 0.29356235 -0.21772835 0.4596774 0.41189477 0.087866835 -0.11067208 0.4653869 -0.43679857 0.08226117 0.20568074 0.25610575 -0.2755921 0.21684183 0.55545825 0.27394304 0.58274376 0.56079334 -0.019897953 0.04342391 0.11342731 0.0025110017 0.30421522 -0.4621858 0.12851642 0.17414717 -0.29196295 -0.18597001 -0.3558215 0.49031663 0.09250647 0.08282276 -0.31051865 -0.39875105 -0.1479644 -0.3303864 0.32734472 -0.27203777 -0.09594484 -0.16147518 0.13743764 0.1729016 0.28283474 0.09654642 -0.14667994 0.19650534 -0.14508362 -0.16598433 0.37134647 -0.23922712 -0.23440589 -0.44901374 -0.08378468 0.1465796 -0.25830492 -0.4305911 0.46478486 0.2719062 0.2609709 -0.32345626 0.3284426 0.14323506 0.052233186 -0.22027661 0.4033224 0.17626296 -0.0012898865 0.36543342 0.17696325 -0.29594317 -0.18723643 0.39807603 -0.2508424 -0.023374366 0.2015111 -0.069629356 -0.1404682 -0.16486107 -0.2661224 -0.19385906 0.23115677 -0.30739388 -0.16943812 -0.31734896 -0.4592567 0.44167075 0.40747994 0.3751491 0.08174453 0.150439 0.089989804 -0.43466932 -0.39526245 0.15204923 -0.46808416 -0.11095904 0.34862912 -0.31988564 0.1776026 -0.39326254 0.3215511 -0.27943027 -0.33455333 0.2110446 0.11376281 -0.20876332 0.3163672 0.08647531 -0.4392426 0.09512486 0.22885962 0.11680194 0.26321375 -0.10229778 0.3669686 0.16111192 0.299612 0.36580372 -0.031842757 -0.13468412 -0.014063538 0.16213143 0.17388776 -0.29535213 0.049779806 0.0936684 -0.21120286 -0.41969308 0.16054988 0.2622825 0.27011293 -0.4406132 0.23306474 -0.12340887 -0.13135919 0.07757771 0.021506822 0.4136366 -0.11417622 0.3793836 -0.07416353 -0.11907961 -0.14051306 -0.1642525 0.39524046 -0.31543335 0.011321002 0.1164642 0.46499303 0.4218763 -0.31883582 0.3478461 0.43690038 0.13763216 0.35518894 0.3354512 0.40090021 -0.17267482 0.33859792 0.08616555 0.46893424 -0.31203628 -0.1575147 0.31490114 -0.22207701 -0.38268653 -0.19615753 0.07860025 -0.18350849 0.32632902 -0.26384604 0.46675947 -0.092039615 0.055202555 0.104449384 -0.4352037 -0.25294495 0.13520376 0.0013422414 -0.013277822 -0.4772672 -0.28025988 -0.407966 0.3669723 0.37473562 -0.025884159 0.15167916 0.07532451 0.17443235 -0.38874012 0.3610008 -0.25996128 0.28677392 0.2475438 -0.21831213 -0.4421026 -0.2634507 0.3400491 0.029766038 -0.38186774 0.34739867 -0.38129365 0.02235245 -0.11874092 -0.3771748 0.46704507 0.40730274 -0.38106027 -0.4403475 -0.2403765 -0.00764939 -0.27940112 -0.2235409 -0.4392104 0.12012636 -0.32242236 0.43359974 -0.23460037 -0.25761017 0.15849641 0.09903317 0.1263865 0.27520603 0.39819297 -0.108232036 0.37594005 -0.098170586 0.42256302 0.28036267 0.017333208 0.14935221 -0.04220484 -0.34849814 0.1768067 -0.33158553 -0.034937922 0.40796256 0.21726407 0.35657787 -0.47525114 0.0013052658 0.13637003 0.46582204 0.2659944 -0.41383842 -0.42803186 -0.15505195 -0.024921488 -0.4437807 -0.14039996 0.39853972 0.41349894 0.2971598 0.0072784983 0.11805043 0.01340265 -0.02248566 -0.15316918 0.4367078 -0.44551682 -0.23408689 -0.14564809 9.324342E-4 0.21972342 -0.32678565 0.44398218 0.04773159 -0.17815372 0.019811526 -0.47396684 0.047696494 0.12204781 -0.27710262 0.16909158 -0.49411464 0.14689231 -0.36829305 0.11925848 -0.092027634 -0.39395437 -0.25372434 -0.2604399 0.12644795 0.13138409 0.39185432 -0.34870854 0.1259408 0.20764475 
0.017649615 0.3644544 -0.022515973 0.27740234 -0.10630384 0.17216864 0.098791316 0.03400907 -0.43844825 0.2663323 0.027548157 -0.47294018 0.08804123 -0.28859168 -0.1954668 -0.4190692 -0.39233565 -0.120285526 0.49964452 -0.30610538 -0.011624036 0.3807326 -0.041364044 0.3465103 -0.38409346 -0.47478214 0.39197668 -0.06867792 -0.007650352 -0.4077335 -0.35222238 0.4485703 -0.26446432 0.0787299 -0.28165904 -0.046641048 0.34576246 0.14192085 0.14347367 0.2361247 -0.19584432 -0.34553638 -0.49833322 0.37870514 -0.34258902 -0.36657557 0.07945912 -0.3890256 -0.2482127 0.33832347 0.20056283 0.41511658 0.2063596 -0.014908351 0.35647008 -0.1275339 0.49842423 -0.14619336 0.49791282 0.09152097 -0.20825659 -0.4487473 0.35375294 -0.050308954 -0.25341552 0.32071033 -0.38403448 0.4881457 0.09582401 -0.39489475 0.2095202 0.061818022 0.2417674 -0.50142354 -0.38362098 -0.28799084 -0.13357465 0.28765297 0.3327096 0.25153345 0.446685 0.16699544 0.32439393 0.48527667 0.21764943 0.055012155 0.14246036 0.0601492 -0.49027082 0.43382156 -0.24813464 -0.3741495 0.073564015 -0.48606086 0.07771881 -0.30688763 0.2885856 0.35234207 0.37641248 -0.11135129 -0.5271836 0.05665334 0.19220072 0.2683122 -0.30769378 0.0683756 -0.37920856 -0.04256401 0.31344336 -0.25696185 -0.13836364 -0.18199837 0.30808222 -0.01769526 -0.18213743 0.005709525 0.26116067 -0.25601777 0.019159354 0.14238234 0.411567 0.24115387 0.4457069 0.061091036 -0.15170474 -0.45994595 -0.0024778754 0.25348797 -0.06560434 0.35621834 -0.09633006 -0.48731524 0.32068133 -0.24721897 0.088442415 -0.47844696 -0.13318254 -0.19305982 0.17832881 -0.40701836 -0.13217774 0.2898933 0.14513509 0.22333695 0.20830844 -0.20947337 0.4333582 0.11087091 -0.006205899 0.47767714 -0.33238673 0.43852845 0.4934863 -0.11401014 0.14592047 0.07598421 -0.12374413 0.22994085 -0.581272 0.35100755 -0.12344432 0.38987687 -0.0077561303 0.36923957 0.1729768 0.4985105 -0.08061336 0.3887264 -0.2697705 -0.18214872 0.29195622 0.25806406 0.26113603 0.35686943 0.37118724 -0.05821775 -0.0076072454 0.27820328 -0.06402544 -0.10947677 0.43181092 -0.33097592 0.44617635 -0.09238063 0.26323822 0.29234612 4.912559E-4 0.34844586 0.4119146 0.058408715 -0.43622318 -0.29905412 -0.03909605 -0.31980613 -0.32950428 0.31534705 -0.30359712 0.20962842 0.49564174 -0.038505428 0.28695458 -0.34084788 0.42324036 0.04019294 -0.12362414 -0.40350467 0.1696016 0.17116627 0.39064828 0.2898288 0.4170111 0.41579425 0.04157408 -0.26017004 -0.13413838 -0.2736176 0.44384524 -0.083566554 -0.03753996 0.48153874 -0.010392015 -0.09818468 -0.1411146 0.19396195 0.3781066 0.373027 -0.1912815 0.24518071 -0.30636498 0.5003679 0.038107116 0.4081349 0.3609068 0.20400992 -0.236403 -0.0052095326 -0.16706364 0.38999715 -0.09083362 -0.24868953 -0.28072986 0.079133384 0.44514412 0.384253 0.03605095 0.015698254 0.26758298 -0.09474156 -0.16708836 0.45564228 0.09665575 -0.28106105 0.23538296 -3.5676526E-4 -0.33916062 -0.14685385 -0.15855613 -0.15612155 0.20269465 -0.14206941 -0.1455214 0.310936 -0.00831699 -0.17139547 -0.09353081 0.18335173 0.3166301 0.4341286 -0.34868765 -0.36259365 -0.3795681 0.016837113 0.374621 0.3369794 -6.4849714E-4 0.27466556 0.36902636 -0.15523235 0.16147368 0.13728659 0.1485136 0.113026164 0.41475075 0.22119287 0.39187363 0.044813942 -0.32322037 -0.36072305 0.25421122 0.11414487 -0.06944743 -0.18730845 0.23749225 -0.5092203 -0.12904266 -0.065022506 -0.35622555 0.4537282 -0.015674124 -0.040119182 -0.079241015 -0.1318925 0.3868311 0.48012483 -0.36446884 -0.2111865 -0.13040408 -0.36394724 -0.038815405 0.48307297 -0.46403146 -0.19109772 -0.31802896 -0.10864607 0.1402891 0.11925057 -0.1608332 0.40322435 -0.009375384 0.090786494 0.4340478 0.41783664 0.003616911 -0.07962636 -0.11917733 0.36762634 0.33266535 0.059416763 -0.31316108 0.3448379 0.17960729 -0.19314033 0.19729699 -0.4200651 -0.10539989 -0.12194013 -0.124109104 -0.31109717 0.23950514 0.18101482 -0.36541238 -0.26079658 0.1867275 -0.35723072 -0.08707229 -0.40739104 0.36164823 -0.3249697 0.044544846 0.53979486 0.24098875 0.67099303 0.48178688 0.12433274 0.41750175 0.12434987 -0.2592669 -0.080279544 -0.3175579 -0.18133242 -0.017276956 -0.4320685 0.36901316 -0.039577756 0.3682085 -0.34886783 -0.38809702 -0.4133346 0.3026259 0.24912466 -0.30126214 -0.057498626 -0.12084065 -0.22641252 -0.038507193 0.23538658 0.55956715 -0.09379032 0.469823 0.57191473 -0.2643016 -0.4356206 0.26126334 -0.46199247 -0.46425188 -0.25654984 0.3938562 0.113759294 -0.045871917 -0.48831078 -0.3911814 -0.49648783 0.4149312 -0.39517614 0.16217156 -0.083110735 0.27107027 -0.498683 -0.4711647 0.29929718 0.056542087 0.36474124 0.12758055 0.17292075 -0.022955144 -0.054126676 0.58842057 0.47777015 -0.36342615 -0.037300315 0.015346523 -0.26133615 0.2745765 -0.33110914 0.16748142 -0.104375355 0.3123652 -0.40095815 -0.2979875 -0.3760488 0.3072626 -0.29812267 -0.4519885 -0.39694378 0.48114842 -0.34080765 -0.39921492 -0.13134906 0.0887338 -0.2574059 -0.41092506 0.26638564 0.4861332 0.42619643 0.105234265 -0.008982274 3.679092E-4 0.24605563 -0.5604115 0.056915935 -0.48457503 -0.087454 -0.1483591 0.39240912 0.0364774 0.12030023 -0.034103923 0.14440313 0.13536374 -0.23251563 -0.12501588 0.25910017 -0.2324469 -0.1243479 -0.47901663 -0.57220495 -0.026543405 0.18785831 0.16871834 0.23515905 -0.24407342 -0.06745779 -0.21373399 0.27370906 0.06477296 0.34450302 0.19270909 0.3288064 0.3969918 0.010221345 0.05412696 -0.33951557 -0.28058976 0.041292865 0.3338894 -0.37946224 0.19319417 0.14911403 0.45788744 -0.23106703 0.46559203 -0.3618711 -0.18572228 -0.31870976 -0.583691 -0.3206734 -0.26797348 -0.07738582 0.40402672 -0.5083687 -0.4303745 -0.020610228 -0.18907052 0.2690921 -0.19688025 -0.27018905 0.030378196 0.19559154 0.14658535 0.44834012 0.23951225 0.049356222 -0.3307576 -0.42304868 0.056710575 0.109880894 0.2644513 0.0033731917 -0.13380373 0.4322217 -0.5115971 -0.025070056 -0.074378535 0.16457707 -0.10092965 -0.30177635 -0.15269443 0.3008285 -0.25382483 0.24839392 0.038431328 0.3736059 -0.16727588 -0.04919489 0.0818693 -0.037691843 -0.107385755 -0.32783931 -0.1540892 0.13787675 -0.22656567 -0.26088607 -0.06282484 -0.1740578 0.43185043 0.3694663 0.033154126 0.443129 0.33529174 0.25166684 -0.010781871 0.18726122 -0.41777346 0.06705755 -0.33953744 -0.25565347 -0.44788077 0.05884897 -0.4853172 0.37022772 -0.39124972 -0.40582848 0.4242147 -0.1611966 0.5218397 0.1753832 0.4169671 0.32901424 0.48301515 0.053006165 0.10443246 -0.2546076 0.2787252 0.083778754 -0.3616662 -0.18294127 -0.09662153 0.3120487 -0.39323077 -0.09801363 -0.4978074 -0.029601635 -0.36986312 -0.36218962 -0.040515397 -0.47168952 0.04727833 -0.46859124 -0.5202531 -0.01585861 0.10624564 -0.18943383 -0.045559227 -0.45923233 0.36178288 -0.24806516 -0.3183373 -0.12738638 -0.29039434 -0.13730195 0.09582325 0.27942827 -0.15763901 -0.13876249 -0.113438 0.31137824 -0.045323223 0.37957048 0.112820856 -0.398276 -0.38892752 0.1084988 -0.5401207 0.11378089 0.1938438 -0.17644303 0.06361639 0.38003644 0.06830796 0.46514186 -0.28724933 0.26368493 -0.43660572 0.035059005 0.37467682 -0.12413736 0.21845321 0.34879577 -0.30430037 -0.059779834 0.11539996 -0.19514878 0.39776626 0.037902478 0.41058636 0.42378682 -0.35974684 -0.046168637 -0.24234226 0.19796157 -0.050391372 0.38175705 0.26723373 0.46070722 0.2332554 0.00983071 -0.4372631 -0.31766677 0.09354112 -0.37440178 0.071302146 -0.19425133 0.11962771 0.053777866 -0.111211434 -0.041095458 0.26675048 0.018363807 -0.07200924 -0.3201884 0.16380054 0.30063498 0.17670411 -0.08845297 -0.2735049 0.41570032 0.49981773 -0.121686675 0.44159856 0.40980417 0.25227213 0.34766984 -0.2899671 -0.33861837 -0.09779992 0.29150635 0.37834543 0.30482927 -0.023608426 0.0088378955 0.079868026 0.48759833 0.29341266 -0.28552824 0.47160596 0.19390479 -0.16991311 0.30277938 -0.4799073 -0.107276246 0.40713552 0.2930005 0.010393113 0.25584805 -0.2367197 -0.3861505 -0.41989964 0.2689875 -0.14646322 -0.3857785 -0.08293193 0.238957 0.2546119 0.10863181 -0.44237506 0.24644263 -0.16990034 -0.25651836 -0.17838718 -0.40711594 -0.19901711 -0.47329572 -0.03838031 0.33975518 0.15511218 -0.4892974 -0.065234564 -0.3530196 -0.40999764 0.21864446 0.22661191 -0.45267352 0.377346 0.05773836 0.44838896 0.27395025 0.04351859 0.45292482 0.3150067 0.20808879 0.43380713 -0.4089285 0.22987194 0.013278579 0.35462865 0.4570483 -0.36676764 0.07119968 0.18219244 -0.31057617 -0.4343428 -0.07579485 -0.21531507 0.19249 -0.04585048 -0.20187424 0.2767063 0.13370876 0.29423976 0.36741495 -0.35949296 -0.17139605 0.23660584 -0.51524925 -0.09579301 2.5199103E-4 -0.25401416 -0.449996 -0.07215327 -0.38738415 0.46333808 0.46667692 -0.11867423 -0.48585284 -0.32140595 -0.037798475 0.10717208 -0.47309718 0.33912018 0.43974155 -0.065273724 0.44421366 0.12435548 -0.44502586 0.21511687 0.41369694 0.24923667 -0.21020284 0.24972636 0.49047711 0.18593164 0.11908391 -0.46606478 0.0603487 0.3879523 0.11310139 0.15460764 -0.26897448 0.280732 -0.3807544 -0.006548712 0.46591428 -0.34469166 -0.06346844 
-0.06793499 0.43190634 0.35316858 -0.2487719 0.46288398 0.4415965 -0.01524153 -0.07613325 -0.34980416 -0.30985618 0.29397786 -0.21147984 0.27186993 -0.11919352 -0.12637278 -0.23896393 0.16624139 -0.31548288 -0.08326508 0.4093511 -0.29483753 0.35888445 0.29379013 0.2169003 -0.28211305 -0.16200542 0.31049967 -0.05785366 0.07443692 0.3417482 0.029033849 -0.32381177 -0.350205 -0.113521695 -0.4984533 0.111542106 0.0592917 -0.18210438 0.38726875 -0.14688113 0.38022622 -0.36687237 0.20014617 -0.17732704 0.057735477 -0.09233182 -0.1257164 -0.05450705 0.32806364 0.11001136 0.42207724 0.3390044 -0.21148217 0.43665802 0.19818376 0.15715027 0.19493441 -0.41722745 -0.29213738 0.11330223 0.1660173 -0.46478546 -0.06849573 0.44203803 0.25025153 0.062345963 -0.12372367 -0.27311563 -0.2842088 -0.4445285 0.43158635 -0.3911803 -0.48048705 0.26115528 -0.46392578 -0.28758448 0.045114342 -0.19191907 -0.28600222 -0.0056648166 -0.079593524 0.09862367 -0.25511286 0.16128993 0.13601333 0.09909051 -0.21324007 -0.20383187 0.07964791 0.44166076 -0.22451614 -0.39119762 -0.45062366 -0.16159853 0.07240576 0.11950543 -0.11521756 0.289191 0.50142986 0.26388907 -0.33462915 0.28584877 0.23083146 -0.27357614 0.31671026 -0.2397977 -0.10119572 -0.42741713 0.47587892 0.11959864 -0.49177107 0.008851783 0.08090822 -0.10122461 0.43258947 0.4748087 0.20479804 0.0030078685 -0.24949272 -0.09934773 0.2237956 -0.2723012 0.16836171 -0.39472336 -0.23662448 -0.24726756 -0.10875002 0.13936365 0.37948158 0.13452637 0.47919884 0.037569825 0.33100834 -0.31837595 -0.22716902 0.24658085 0.30613077 -0.48769334 -0.23313548 0.30056784 -0.10537087 0.37291908 -0.070310235 0.11047715 -0.1815783 -0.06847296 -0.27677804 -0.10161348 0.16102907 0.18237995 -0.3552387 -0.4337485 -0.10167554 0.036879715 0.34515727 -0.020055138 -0.062113427 0.021607032 -0.39870498 0.37052482 0.37954757 -0.4720566 0.006108276 0.04220948 0.15816402 -0.48913717 -0.14638455 -0.1607424 0.47208154 -0.402534 0.1296647 -0.32126173 -0.38999867 0.20656553 -0.21956946 -0.2224732 -0.08003327 -0.43179166 -0.0015508723 -0.4668886 0.19193344 -0.4421919 0.42077935 0.047956433 -0.46733436 0.21499406 -0.28783613 0.005685003 0.015529724 -0.17391196 -0.1613762 0.31089312 0.11003247 0.35804236 0.4986192 0.10490799 -0.39488056 -0.40754598 -0.06768671 -0.059920706 0.48192117 0.44909304 0.3977757 -0.16232564 -0.52964664 -0.23396373 -0.18445075 -0.5699943 0.14929435 0.33938572 -0.12581068 0.075435236 0.25830507 -0.38651127 -0.19676216 0.3416434 -0.21992725 0.20934644 -0.35949484 -0.30640626 0.0830737 0.3312179 -0.31552655 0.17303173 0.08053725 0.03340021 -0.12602732 0.11722652 0.16250455 0.07439298 0.44793865 0.3610764 0.38525185 -0.071656756 -0.36564723 -0.03670767 -0.034775488 -0.36488882 0.30677408 -0.265756 -0.14321192 -0.046720557 0.29735804 -0.06290504 -0.35132837 -0.45781633 -0.20795561 -0.13395254 -0.40758088 -0.076386586 -0.41170123 -0.26772693 0.015099721 0.2722933 -0.34610215 0.39051846 0.07566576 0.3826104 0.20380275 -0.22911865 -0.024461377 0.14124969 0.3962678 0.075898774 -0.44410712 -0.16098331 0.44288105 -0.36399874 0.38378757 -0.22389686 -0.19256654 0.31838313 0.16605191 0.34600735 0.33240262 -0.17195052 0.20018703 -0.078987844 -0.119537055 0.2399864 -0.17957163 -0.25896224 -0.22838224 0.38997266 0.3952178 0.3609977 -0.435167 0.3704241 -0.43938422 -0.06550611 -0.37755045 0.42604488 -0.42424002 0.06889969 0.49398616 0.5142297 0.35710552 0.100819476 -0.14733955 -0.29719266 0.46878132 -0.49360144 -0.47214872 0.28662083 0.38033172 -0.2747041 -0.07103008 -0.016835624 -0.32542732 -0.14960343 0.3726263 0.4994717 -0.041516837 0.37031546 0.20353545 0.20769195 -0.33905247 0.085529275 -0.24780537 0.41104037 0.20865496 0.5001268 -0.261404 0.349998 0.30256355 0.08493259 -0.2854472 0.09976733 -0.41620576 0.2242319 0.48154595 -0.23053546 -0.09087046 -0.24644803 0.31868786 -0.13303606 -0.050804123 0.39978084 -0.072187535 -0.27175763 0.28029516 0.2802416 -0.41827312 -0.23212941 0.08658305 0.20415786 0.21478727 -0.024466783 -0.5094676 -0.07950022 -0.09358277 0.18955864 -0.5467681 -0.010121948 -0.024714978 -0.1046742 -0.04831875 0.2501185 0.12439792 -0.17070924 -0.45880994 0.15563154 -0.41994205 0.1727217 -0.28907165 0.25583646 -0.4820256 0.30812302 -0.0671055 -0.3116886 -0.42695335 0.2341675 -0.46958 0.019378044 -0.24569522 0.3455173 0.11757594 0.2266463 -0.13799767 -0.41847178 -0.542658 0.016565762 -0.14761484 -0.17355515 0.35492614 0.13311583 -0.098499574 0.29256457 0.19078183 0.17926878 0.053463478 0.28532112 0.18110533 -0.36971876 0.18044743 -0.270361 0.26614335 -0.14653938 -0.27212068 -0.28534257 -0.3113432 -0.46544877 -0.2049991 -0.28424424 0.27668735 0.22591503 -0.21007077 -0.264989 -0.4893585 0.3414381 -0.313468 -0.41555598 0.061066736 -0.2314485 -0.24104798 -0.11758051 -0.3874097 -0.41631955 -0.48610255 0.48251367 -0.10986814 -0.27328712 0.08782705 0.011021343 -0.34319517 -0.08296632 0.33893427 -0.21848771 -0.059896983 -0.24043219 0.5098315 0.44511986 -0.20062907 0.4903736 0.035409942 0.31748858 0.29259488 0.3087082 0.2931767 0.04291226 -0.4201411 0.13365892 -0.47509497 -0.014771326 0.3452404 0.33312038 0.36583382 0.31671244 0.21624161 -0.21293749 0.26658937 0.3146669 0.4139543 0.45048046 -0.19646126 -0.26641718 -0.18683791 -0.2758121 0.19329774 -0.26307693 -0.14563231 -0.0106433015 0.23808385 -0.38049516 0.18775843 0.28952432 0.052578688 0.0842509 0.4267958 0.28118017 -0.05949769 0.25352943 -0.41574952 -0.45296037 0.11423219 -0.07944608 0.040652435 -0.31508535 0.0083498955 -0.28870058 -0.22182389 0.103581086 0.13525529 -0.1457856 -0.055022012 0.10113726 0.18893844 0.01525825 -0.20197152 0.10577465 -0.09773473 0.35731176 -0.3481244 -0.39496934 -0.24376181 -0.035846587 -0.32501513 -0.105978265 0.40509328 -0.08079323 -0.3869904 0.19661705 0.22106802 -0.31710282 0.3895062 0.17581995 0.26381335 -0.04358367 -0.29438066 0.37069675 0.09228553 -0.30813026 -0.3392101 -0.08526832 0.42860416 0.16434868 -0.025857143 0.12203389 -0.12283946 -0.35560676 -0.31675133 0.4662931 0.10073795 0.234089 0.24246761 -0.4512537 -0.114360705 0.32521862 -0.47510353 0.48482996 -0.49379212 0.22332497 0.16397275 -0.2910597 -0.03790559 0.4828021 -0.5019678 -0.28302196 -0.17992704 -0.28531557 -0.2292934 0.22626989 0.26104915 -0.17046207 0.37151402 -0.20588496 0.4664767 -0.10846672 -0.23374602 0.19398431 -0.04221771 0.12858033 2.587135E-4 -0.14851649 0.38279057 0.047422584 0.12696475 0.027229771 -0.15608287 0.40942848 0.38618267 0.35559028 0.49215215 -0.42242283 -0.13127276 0.39574078 -0.2592925 0.37673795 -0.041073397 0.25540698 0.11090465 -0.15204622 -0.14276633 0.2763329 0.5348401 0.34487534 -0.23400792 0.38811657 0.42337695 -0.50659674 -0.43460312 0.19038582 -0.110436 0.23560989 0.1372635 0.05688251 0.15437157 0.31924605 -0.19458868 -0.10281855 0.45275742 -0.25493917 -0.44306764 0.15951005 0.089168735 -0.47109511 -0.3577259 -0.46080843 -0.38827112 -0.33038968 0.48919126 -0.22726277 0.5075829 -0.14819936 -0.38537407 -0.12454547 0.13855335 0.21855408 0.14361504 0.3550982 -0.002605342 0.39010042 0.21107239 -0.16308662 0.47789097 -0.43976763 0.22437622 0.44757798 0.23960924 -0.30064213 0.30545294 -0.2565895 0.4532507 -0.5105784 0.3280119 0.09142037 -0.44049674 -0.39616582 0.38157526 0.069126144 -0.05391876 0.2964185 0.30600837 -0.032385547 -0.47384596 0.18137644 -0.05934237 -0.31423548 -0.020186681 -0.21890385 -0.25438425 0.17774574 0.33348903 0.20303091 -0.49024007 0.16348858 0.10002544 0.15696843 -0.21007565 -0.24148634 -0.47874802 -0.22310105 0.1968519 -0.49108428 -0.33257452 -0.49464595 -0.28609082 -0.4584495 0.035914935 -0.23492229 0.15535763 -0.35263667 0.28761724 -0.060114577 0.028932929 -0.39557374 -0.4265855 -0.016799003 -0.044969954 -0.39230946 -0.4469305 -0.22109424 -0.047636732 -0.38435486 -0.056518476 -0.2847388 -0.0999686 -0.14631744 -0.49785563 0.31341505 -0.49048278 0.2670869 0.40221593 0.20997609 0.17175055 -0.19153108 -0.2036398 -0.053411417 -0.49452782 -0.19466119 -0.3466367 0.19392507 0.063579135 0.38972095 -0.44480288 -0.42869252 0.34828475 0.19715112 0.37861037 0.32904294 0.43592584 0.2577257 0.43201712 -0.45776016 -0.24550769 0.39016548 -0.38746962 -0.3658702 0.020533524 0.054665856 -0.3011641 -0.14607085 -0.32933798 -0.29453588 -0.017538745 0.409328 -0.07985158 0.18845841 -0.15055715 0.21253958 -0.091492966 0.034001913 -0.19737522 0.077557504 0.48637894 0.32974026 -0.20610312 0.3716257 -0.23861511 0.13883537 -0.2728961 0.3858267 -0.12059872 -0.020499356 0.38856238 -0.19381648 0.20433462 -0.3105237 -0.2534114 0.028186476 -0.008978992 -0.20661536 0.33825523 -0.29922926 -0.2763224 0.04179856 -0.15530717 -0.25507152 -0.24607973 -0.29697883 -0.36516824 -0.4077027 -0.291559 -0.13098268 -0.16255647 -0.12302523 0.4547892 -0.4435307 -0.30294892 -0.45674744 0.097348556 0.16815159 -0.085756585 0.3583705 -0.12600493 0.025903165 0.121971525 0.23602538 -0.49472064 0.10816322 -0.0329343 -0.08578229 -0.16673154 0.4873813 0.09374073 -0.42223376 0.14823171 -0.10010905 -0.09842385 0.047271796 0.43530756 0.14907546 0.018244954 -0.091689125 
-0.25739357 0.42047238 -0.09570579 -0.074552566 0.3687732 -0.46204048 0.49477825 -0.13256867 0.20951891 -0.15959069 0.11299223 0.035925083 0.10497596 0.23878369 0.16756053 0.34049943 -0.1189205 0.081391014 0.23836274 0.23483725 -0.09545697 -0.33632448 0.23281083 -0.3226815 0.06008808 -0.07917347 0.49683604 0.3044946 -0.08518582 0.44201177 -6.0852885E-4 -0.41053233 -0.2219843 0.0077883243 -0.24951461 0.05317116 -0.2607123 -0.38387966 -0.44831717 0.037868064 -0.4805811 0.34445778 0.013641965 0.16552477 0.17413725 0.4933914 -0.40587208 0.4058647 0.29148847 0.15384942 -0.05105464 0.4756885 0.16953349 -0.35448673 -0.42528838 -0.47455013 0.10724937 0.45286223 0.14453238 0.19077253 -0.49340105 -0.17766644 0.31312492 -0.48100165 -0.16079827 -0.37885466 0.082253516 -0.18997552 0.0637623 -0.041707754 -0.08768212 0.045698702 0.06523011 -0.2259372 0.0071639065 -0.34834313 0.46980408 0.2528082 0.38579053 0.21121648 0.34413043 -0.116590634 0.38814357 -0.37260446 0.123200536 -0.12188857 0.28000012 0.07121552 0.49035543 0.05656398 -0.3820364 0.41502056 0.19329326 -0.33471805 -0.20560126 0.15486614 -0.12580769 -0.13002898 -0.3522485 -0.22695288 0.019878782 0.07127665 -0.36239412 -0.1181802 0.051031116 -0.27305233 -0.16367544 -0.0024976286 -0.29836062 0.17324752 -0.24452707 0.13333824 -0.27867687 0.2562599 -0.05133738 0.028169785 -0.07891112 -0.025056453 -0.41793656 -0.2859547 -0.23025802 -0.24127461 0.10024941 0.09393647 -0.07933756 0.38031873 -0.10469726 0.36923987 0.23756777 -0.04212105 0.3085151 0.0896557 -0.1380233 0.2680474 0.27004817 -0.24049032 -0.092713736 0.22392578 -0.18163185 -0.037129737 -0.23802216 0.29332727 0.051946733 -0.2664362 -0.043869067 0.40903476 -0.054631468 -0.01801383 -0.124091916 0.11814968 0.3226125 -0.0075894883 0.08915957 -0.36259532 0.31735513 0.371973 0.17732953 -0.31747127 -0.085006244 0.20229618 -0.06524282 -0.33968386 0.029274616 0.14663038 -0.040427223 0.12658733 -0.424589 -0.055362184 0.49808964 0.06478301 -0.44292456 -0.4993994 0.3320574 0.1191333 -0.34981048 0.26488882 -0.14586714 -0.23004635 -0.22412087 -0.26212266 -0.48360607 -0.0075908983 0.1051726 -0.21787333 -0.23313326 -0.15246704 -0.5639693 -0.09083851 0.16850694 0.048773505 -0.07086151 -0.07931541 0.3910626 -0.17610915 0.43669286 0.01990355 0.49670327 0.02313405 0.21095046 0.43936753 0.22254093 0.19371426 -0.06868147 0.17015247 -0.033912677 0.20487121 0.3147462 -0.40610027 0.23712297 0.41768497 0.26187056 -0.39410225 -0.059749365 0.31905577 0.22141057 -0.5868341 -0.11818135 0.058257964 0.38762054 0.092188835 -0.36364663 0.27034527 0.3913555 -0.4810956 -0.17705598 0.24718368 -0.4633062 0.005038337 0.2071168 -0.025825303 -0.04810161 0.37355724 -0.15675536 -0.24238077 -0.3153157 -0.0062074796 0.47076252 -0.14682502 -0.46849126 0.032847464 -0.22899714 -0.26777527 0.27416188 -0.432261 -0.43970948 0.25024447 0.122708306 -0.04266297 -0.19243985 -0.5099288 -0.004707193 -0.19442147 0.107146576 -0.25871676 -0.041779745 0.039926276 -0.34789407 0.03926141 0.27415013 0.03572766 -0.099942915 0.064866096 0.36799794 -0.3233778 0.36377916 -0.0017495694 -0.34973058 -0.051637568 0.10968761 -0.20290436 0.10094223 -0.22770315 0.2832232 -0.5687591 -0.017938156 0.030815799 -0.2596159 0.058192685 0.4452234 -0.39643213 -0.050368734 -0.44129905 -0.188118 -0.43141153 -0.001842228 0.40241656 0.33352765 -0.02525023 -0.36131558 0.319747 0.17113432 0.04778063 -0.23687673 -0.41170156 0.07949014 0.33362663 -0.24172607 0.32235453 -0.39727345 -0.54555446 -0.013573297 0.3441402 -0.01958081 -0.23789106 0.21384425 0.3658598 0.30615053 0.4278962 -0.20704138 0.08239562 0.25157055 -0.13580124 -0.40136462 0.25152844 0.13333385 -0.22993205 0.20934194 -0.4195147 -0.20683664 0.25877374 -0.3446682 -0.34402925 -0.33548164 0.12816909 -0.17404993 -0.4560298 -0.15527193 -0.016895168 0.33326375 0.013832731 0.14008614 -0.07282282 0.46921664 -0.40866843 0.17650855 -0.2719589 -0.08625927 -0.049808584 -0.34131527 -0.33720642 -0.41940734 0.40658772 -0.039209593 -0.45771086 -0.002065363 0.15383498 0.4324653 0.35241425 0.46462056 -0.25283355 -0.284658 -0.485925 -0.078944445 0.0033354792 0.37811616 0.017465657 -0.10755793 -0.3704496 0.24704532 -0.1580386 0.12485299 0.3288944 -0.40394536 -0.33905303 -0.45102164 -0.14143145 0.11311974 -0.13597444 0.083613135 0.11840437 -0.19201753 -0.2575817 0.113866635 0.21066217 -0.15323822 0.18752012 0.23662578 -0.38890362 0.18470137 0.18375318 0.3490461 0.07917559 -0.01967375 0.13330759 0.3335468 -0.06447896 -0.18650119 -0.27551964 0.36133406 -0.38323253 -0.08415985 -0.19633311 0.3805789 -0.18036558 -0.24300863 -0.41593432 -0.2514399 -0.2930223 0.2570596 0.026059784 -0.16894056 0.0469418 0.49677083 0.12360511 -2.2646417E-4 0.26082304 0.04241215 -0.43149507 0.26490083 -0.09400023 0.30681142 -0.27148637 -0.074875996 0.5560745 0.52584064 -0.18381281 -0.08776108 0.26119277 -0.47571775 -0.431187 -0.34679857 0.38060203 -0.47691393 0.074608885 -0.14482264 0.2543818 0.2264687 -0.029396808 -0.30835316 0.07990107 0.0053049247 0.09176414 -0.27782506 -0.08560668 -0.47488916 0.029153164 0.2510125 -0.34872037 0.11039249 -0.14808457 0.32595393 -0.049300246 0.51615626 0.35782507 -0.16866888 0.29145783 -0.06993368 -0.31014916 0.096294 -0.15621345 -0.33018968 -0.24841124 -0.23089401 -0.33802685 -0.1937466 0.44963127 -0.06590675 0.32117572 -0.31441793 -0.10126697 -0.16679509 0.32817072 -0.32394013 -0.12887 0.16327198 0.10908504 -0.49012002 0.5292449 0.016220536 0.38484836 0.26847953 -0.051092688 0.426629 -0.15878004 -0.415229 -0.19657023 -0.4397716 -0.35347685 -0.12050176 0.38929322 -0.4825492 0.19386241 -0.3617541 0.28230715 0.13490131 0.41265905 0.22910659 -0.18794568 0.06417366 -0.056813233 -0.2744618 -0.2633585 0.35798472 -0.053756144 -0.26223442 0.573168 -0.025810277 0.113339186 -0.005001202 -0.46984157 -0.17315881 -0.19624586 0.10271407 -0.09021067 -0.14041336 -0.22337268 0.3434271 0.4904805 0.30582213 0.05720187 -0.108027585 0.0031182885 -0.35686862 0.43973693 0.053907443 0.45376277 -0.3199342 0.45203105 -0.1795006 0.45069593 0.19148879 0.40604827 0.5399858 -0.19132748 0.36627772 0.40355876 0.35383958 -0.18469061 -0.2075353 0.27713293 -0.3543224 0.3617261 -0.2566519 0.40895915 0.25580907 -0.19761348 -0.3772645 0.39885294 -0.18870799 -0.3412383 0.46660718 0.3960938 0.46968487 0.38845074 0.47178006 0.35416597 -0.22657368 0.043563705 -0.25050375 -0.27481192 -0.18245983 0.21848746 0.18291943 0.14859846 -0.0043774503 -0.05072967 0.1288429 0.012950178 -0.3684732 -0.02501227 0.18229389 -0.14907353 0.49210706 0.106655106 0.22552991 -0.18542513 -0.03773032 -0.08077651 -0.4209642 0.45894328 0.36965588 0.5351154 0.06627341 0.55146277 0.2934543 0.1645962 -0.24857551 0.41959125 -0.028512169 -0.25559506 -0.09360016 -0.43069384 0.19312102 -0.16454488 -0.19073254 -0.0064347563 -0.2207779 -0.102454126 0.2780983 0.38291556 -0.062762134 -0.42046943 -0.107529 -0.50806594 0.014756504 -0.0809695 -0.020423962 -0.37074775 0.18470196 -0.23554236 0.5480843 -0.19317098 0.011711703 -0.11653043 -0.07991136 0.0031102481 -0.28341168 -0.20868133 -0.18725652 -0.4270277 0.2152983 -0.25417396 -0.48512062 -0.34784666 -0.42855126 0.01589263 0.056714766 -0.33003038 -0.03329176 0.32204285 0.08235538 -0.0724947 -0.22740689 -0.06303632 0.37747192 0.29317433 0.07073015 -0.29949993 -0.4180072 -0.25764266 -0.14812097 0.2832351 -0.14762017 0.14821184 -0.035051905 0.39954573 0.26283503 -0.41703054 -0.51118016 -0.16304389 -0.36538997 0.29458794 -0.26149228 -0.093153164 0.21031825 0.10544487 -0.037891746 0.05902692 -0.016111298 -0.4843021 -0.4491781 -0.48266697 0.41562837 -0.030585721 -0.5331066 -0.5672792 0.023304522 -0.333428 -0.4027668 -0.49209273 0.03154856 0.078434855 0.3119656 -0.28260186 0.11421294 -0.369376 -0.34156945 0.37794897 0.014263269 -0.12108488 0.14919814 -0.33469456 0.49762505 -0.27395278 0.46671632 0.44823766 0.3552491 0.12781434 0.46547076 0.1739253 -0.03972499 -0.37357143 -0.019272724 0.36388817 -0.47526178 0.034520924 0.19351214 0.03739123 0.3993349 0.3271647 -0.16789939 -0.22386509 0.2774069 0.101036355 -0.21501993 -0.31019446 -0.16220148 -0.4394166 -0.3244032 0.3624935 0.001654765 0.20955972 -0.34494305 0.074304774 -0.4582376 0.4884162 0.34361207 -0.36935768 -0.4748476 0.29556984 -0.15257259 0.2698704 0.014440743 -0.4948245 0.36575013 -0.18897106 0.0034395684 0.1723917 0.03775876 -0.069739304 -0.09563708 -0.3311975 -0.41969642 0.23239051 -0.034259476 0.20272551 0.0971183 0.39831132 -0.22299226 -0.06763558 0.2000696 -0.17677404 -0.23335044 0.13232197 0.11964138 0.31552476 -0.4035939 0.31304944 0.09531524 0.466161 0.43761823 0.48024347 -0.25072303 0.22068432 0.39521712 -0.28382146 -0.46601447 0.20074353 -0.15125906 -0.40404585 -0.49071565 -0.29027706 -0.1932195 0.4525657 -0.042878952 -0.3807546 -0.40450934 0.123491734 0.3775648 0.11646788 0.37028882 -0.46109468 0.37617847 -0.18239576 0.0056805136 -0.44997346 -0.16998175 -0.23182122 -0.23211667 0.3195389 -0.4792008 -0.14934021 0.23856738 0.066523045 0.10757937 0.32618624 0.48674256 0.11173305 -0.09002056 -0.40411472 0.41279757 -0.016511766 0.4793723 -0.22684744 
